%YAML:1.0
my_svm: !!opencv-ml-svm
   svm_type: C_SVC
   kernel: { type:LINEAR }
   C: 1.0000000000000000e-002
   term_criteria: { epsilon:2.2204460492503131e-016, iterations:1000 }
   var_all: 15876
   var_count: 15876
   class_count: 2
   class_labels: !!opencv-matrix
      rows: 1
      cols: 2
      dt: i
      data: [ -1, 1 ]
   sv_total: 1
   support_vectors:
      - [ 0., 0., 0., 0., 0., 0., 0., 0., 0., 0., 0., 0., 0., 0., 0., 0.,
          0., 0., 0., 0., 0., 0., 0., 0., 0., 0., 0., 0., 0., 0., 0., 0.,
          0., 0., 0., 0., 0., 0., 0., 0., 0., 0., 0., 0., 0., 0., 0., 0.,
          0., 0., 0., 0., 0., 0., 0., 0., 0., 0., 0., 0., 0., 0., 0., 0.,
          0., 0., 0., 0., 0., 0., 0., 0., 0., 0., 0., 0., 0., 0., 0., 0.,
          0., 0., 0., 0., 0., 0., 0., 0., 0., 0., 0., 0., 0., 0., 0., 0.,
          0., 0., 0., 0., 0., 0., 0., 0., 0., 0., 0., 0., 0., 0., 0., 0.,
          0., 0., 0., 0., 0., 0., 0., 0., 0., 0., 0., 0., 0., 0., 0., 0.,
          0., 0., 0., 0., 0., 0., 0., 0., 0., 0., 0., 0., 0., 0., 0., 0.,
          0., 0., 0., 0., 0., 0., 0., 0., 0., 0., 0., 0., 0., 0., 0., 0.,
          0., 0., 0., 0., 0., 0., 0., 0., 0., 0., 0., 0., 0., 0., 0., 0.,
          0., 0., 0., 0., 0., 0., 0., 0., 0., 0., 0., 0., 0., 0., 0., 0.,
          0., 0., 0., 0., 0., 0., 0., 0., 0., 0., 0., 0., 0., 0., 0., 0.,
          0., 0., 0., 0., 0., 0., 0., 0., 0., 0., 0., 0., 0., 0., 0., 0.,
          0., 0., 0., 0., 0., 1.67757273e-002, 0., 0., 0., 0., 0., 0.,
          0., 0., 0., 0., 0., 0., 0., 0., 0., 0., 0., 1.67757273e-002,
          0., 0., 0., 0., 0., 0., 0., 0., 0., 0., 0., 0., 0., 0., 0., 0.,
          0., 0., 0., 0., 0., 0., 0., 0., 0., 0., 0., 0., 0., 0., 0., 0.,
          0., 0., 0., 0., 0., 0., 0., 0., 0., 0., 0., 0., 0., 0., 0., 0.,
          0., 0., 0., 0., 0., 0., 0., 0., 0., 0., 0., 0., 0., 0., 0., 0.,
          0., 0., 0., 0., 0., 0., 0., 0., 0., 0., 0., 0., 0., 0., 0., 0.,
          0., 0., 0., 0., 0., 0., 0., 0., 0., 0., 0., 0., 0., 0., 0., 0.,
          0., 0., 0., 0., 0., 0., 0., 0., 0., 0., 0., 0., 0., 0., 0., 0.,
          0., 0., 0., 0., 0., 0., 0., 0., 0., 0., 0., 0., 0., 0., 0., 0.,
          0., 0., 0., 0., 0., 0., 0., 0., 0., 0., 0., 0., 0., 0., 0., 0.,
          0., 0., 0., 0., 0., 0., 0., 0., 0., 0., 0., 0., 0., 0., 0., 0.,
          0., 0., 0., 0., 0., 0., 0., 0., 0., 0., 0., 0., 0., 0., 0., 0.,
          0., 0., 0., 0., 0., 0., 0., 0., 0., 0., 0., 0., 0., 0., 0., 0.,
          0., 0., 0., 0., 0., 0., 0., 0., 0., 0., 0., 0., 0., 0., 0., 0.,
          0., 0., 0., 0., 0., 0., 0., 0., 0., 0., 0., 0., 0., 0., 0., 0.,
          0., 0., 0., 0., 0., 0., 0., 0., 0., 1.67757273e-002, 0., 0.,
          0., 0., 0., 0., 0., 0., 0., 0., 0., 0., 0., 0., 0., 0., 0.,
          1.67757273e-002, 0., 0., 0., 0., 0., 0., 0., 0., 0., 0., 0.,
          0., 0., 0., 0., 0., 0., 0., 0., 0., 0., 0., 0., 0., 0., 0., 0.,
          0., 0., 0., 0., 0., 0., 0., 0., 0., 0., 0., 0., 0., 0., 0., 0.,
          0., 0., 0., 0., 0., 0., 0., 0., 0., 0., 0., 0., 0., 0., 0., 0.,
          0., 0., 0., 0., 0., 0., 0., 0., 0., 0., 0., 0., 0., 0., 0., 0.,
          0., 0., 0., 0., 0., 0., 0., 0., 0., 0., 0., 0., 0., 0., 0., 0.,
          0., 0., 0., 0., 0., 0., 0., 0., 0., 0., 0., 0., 0., 0., 0., 0.,
          0., 0., 0., 0., 0., 0., 0., 0., 0., 0., 0., 0., 0., 0., 0., 0.,
          0., 0., 0., 0., 0., 0., 0., 0., 0., 0., 0., 0., 0., 0., 0., 0.,
          0., 0., 0., 0., 0., 0., 0., 0., 0., 0., 0., 0., 0., 0., 0., 0.,
          0., 0., 0., 0., 0., 0., 0., 0., 0., 0., 0., 0., 0., 0., 0., 0.,
          0., 0., 0., 0., 0., 0., 0., 0., 0., 0., 0., 0., 0., 0., 0., 0.,
          0., 0., 0., 0., 0., 0., 0., 0., 0., 0., 0., 0., 0., 0., 0., 0.,
          0., 0., 0., 0., 0., 0., 0., 0., 0., 0., 0., 0., 0., 0., 0., 0.,
          0., 0., 0., 0., 0., 0., 0., 0., 0., 0., 0., 8.44086579e-004,
          2.52582901e-003, 0., 1.49405543e-002, 0., 0., 0., 0., 0., 0.,
          0., 0., 0., 0., 0., 0., 0., 0., 3.42368847e-003,
          4.92281234e-003, 0., 1.49405543e-002, 0., 0., 0., 0., 0., 0.,
          0., 0., 0., 0., 0., 0., 0., 0., 0., 0., 0., 0., 0., 0., 0., 0.,
          0., 0., 0., 0., 0., 0., 0., 0., 0., 0., 0., 0., 0., 0., 0., 0.,
          0., 0., 0., 0., 0., 0., 0., 0., 0., 0., 0., 0., 0., 0., 0., 0.,
          0., 0., 0., 0., 0., 0., 0., 0., 0., 0., 0., 0., 0., 0., 0., 0.,
          0., 0., 0., 0., 0., 0., 0., 0., 0., 0., 0., 0., 0., 0., 0., 0.,
          0., 0., 0., 0., 0., 0., 0., 0., 0., 0., 0., 0., 0., 0., 0., 0.,
          0., 0., 0., 0., 0., 0., 0., 0., 0., 0., 0., 0., 0., 0., 0., 0.,
          0., 0., 0., 0., 0., 0., 0., 0., 0., 0., 0., 0., 0., 0., 0., 0.,
          0., 0., 0., 0., 0., 0., 0., 0., 0., 0., 0., 0., 0., 0., 0., 0.,
          0., 0., 0., 0., 0., 0., 0., 0., 0., 0., 0., 0., 0., 0., 0., 0.,
          0., 0., 0., 0., 0., 0., 0., 0., 0., 0., 0., 0., 0., 0., 0., 0.,
          0., 0., 0., 0., 0., 0., 0., 0., 0., 0., 0., 0., 0., 0., 0., 0.,
          0., 0., 0., 0., 0., 0., 0., 0., 0., 0., 0., 0., 0., 0., 0., 0.,
          0., 0., 0., 0., 0., 0., 0., 0., 0., 0., 0., 0., 0., 0., 0., 0.,
          1.45156635e-003, 4.34364006e-003, 0., 1.59526020e-002, 0., 0.,
          0., 0., 0., 0., 0., 0., 0., 0., 0., 0., 0., 0., 0., 0., 0.,
          1.59526020e-002, 0., 0., 0., 0., 0., 0., 0., 0., 0., 0., 0.,
          0., 0., 0., 0., 0., 0., 0., 0., 0., 0., 0., 0., 0., 0., 0., 0.,
          0., 0., 0., 0., 0., 0., 0., 0., 0., 0., 0., 0., 0., 0., 0., 0.,
          0., 0., 0., 0., 0., 0., 0., 0., 0., 0., 0., 0., 0., 0., 0., 0.,
          0., 0., 0., 0., 0., 0., 0., 0., 0., 0., 0., 0., 0., 0., 0., 0.,
          0., 0., 0., 0., 0., 0., 0., 0., 0., 0., 0., 0., 0., 0., 0., 0.,
          0., 0., 0., 0., 0., 0., 0., 0., 0., 0., 0., 0., 0., 0., 0., 0.,
          0., 0., 0., 0., 0., 0., 0., 0., 0., 0., 0., 0., 0., 0., 0., 0.,
          0., 0., 0., 0., 0., 0., 0., 0., 0., 0., 0., 0., 0., 0., 0., 0.,
          0., 0., 0., 0., 0., 0., 0., 0., 0., 0., 0., 0., 0., 0., 0., 0.,
          0., 0., 0., 0., 0., 0., 0., 0., 0., 0., 0., 0., 0., 0., 0., 0.,
          0., 0., 0., 0., 0., 0., 0., 0., 0., 0., 0., 0., 0., 0., 0., 0.,
          0., 0., 0., 0., 0., 0., 0., 0., 0., 0., 0., 0., 0., 0., 0., 0.,
          0., 0., 0., 0., 0., 0., 0., 0., 0., 0., 0., 0., 0., 0., 0., 0.,
          0., 0., 0., 0., 0., 0., 0., 0., 0., 0., 0., 0., 0., 0.,
          1.67757273e-002, 0., 0., 0., 0., 0., 0., 0., 0., 0., 0., 0.,
          0., 0., 0., 0., 0., 0., 1.67757273e-002, 0., 0., 0., 0., 0.,
          0., 0., 0., 0., 0., 0., 0., 0., 0., 0., 0., 0., 0., 0., 0., 0.,
          0., 0., 0., 0., 0., 0., 0., 0., 0., 0., 0., 0., 0., 0., 0., 0.,
          0., 0., 0., 0., 0., 0., 0., 0., 0., 0., 0., 0., 0., 0., 0., 0.,
          0., 0., 0., 0., 0., 0., 0., 0., 0., 0., 0., 0., 0., 0., 0., 0.,
          0., 0., 0., 0., 0., 0., 0., 0., 0., 0., 0., 0., 0., 0., 0., 0.,
          0., 0., 0., 0., 0., 0., 0., 0., 0., 0., 0., 0., 0., 0., 0., 0.,
          0., 0., 0., 0., 0., 0., 0., 0., 0., 0., 0., 0., 0., 0., 0., 0.,
          0., 0., 0., 0., 0., 0., 0., 0., 0., 0., 0., 0., 0., 0., 0., 0.,
          0., 0., 0., 0., 0., 0., 0., 0., 0., 0., 0., 0., 0., 0., 0., 0.,
          0., 0., 0., 0., 0., 0., 0., 0., 0., 0., 0., 0., 0., 0., 0., 0.,
          0., 0., 0., 0., 0., 0., 0., 0., 0., 0., 0., 0., 0., 0., 0., 0.,
          0., 0., 0., 0., 0., 0., 0., 0., 0., 0., 0., 0., 0., 0., 0., 0.,
          0., 0., 0., 0., 0., 0., 0., 0., 0., 0., 0., 0., 0., 0., 0., 0.,
          0., 0., 0., 0., 0., 0., 0., 0., 0., 0., 0., 0., 0., 0., 0., 0.,
          0., 0., 0., 0., 1.67757273e-002, 0., 0., 0., 0., 0., 0., 0.,
          0., 0., 0., 0., 0., 0., 0., 0., 0., 0., 1.67757273e-002, 0.,
          0., 0., 0., 0., 0., 0., 0., 0., 0., 0., 0., 0., 0., 0., 0., 0.,
          0., 0., 0., 0., 0., 0., 0., 0., 0., 0., 0., 0., 0., 0., 0., 0.,
          0., 0., 0., 0., 0., 0., 0., 0., 0., 0., 0., 0., 0., 0., 0., 0.,
          0., 0., 0., 0., 0., 0., 0., 0., 0., 0., 0., 0., 0., 0., 0., 0.,
          0., 0., 0., 0., 0., 0., 0., 0., 0., 0., 0., 0., 0., 0., 0., 0.,
          0., 0., 0., 0., 0., 0., 0., 0., 0., 0., 0., 0., 0., 0., 0., 0.,
          0., 0., 0., 0., 0., 0., 0., 0., 0., 0., 0., 0., 0., 0., 0., 0.,
          0., 0., 0., 0., 0., 0., 0., 0., 0., 0., 0., 0., 0., 0., 0., 0.,
          0., 0., 0., 0., 0., 0., 0., 0., 0., 0., 0., 0., 0., 0., 0., 0.,
          0., 0., 0., 0., 0., 0., 0., 0., 0., 0., 0., 0., 0., 0., 0., 0.,
          0., 0., 0., 0., 0., 0., 0., 0., 0., 0., 0., 0., 0., 0., 0., 0.,
          0., 0., 0., 0., 0., 0., 0., 0., 0., 0., 0., 0., 0., 0., 0., 0.,
          0., 0., 0., 0., 0., 0., 0., 0., 0., 0., 0., 0., 0., 0., 0., 0.,
          0., 0., 0., 0., 0., 0., 0., 0., 0., 0., 0., 0., 0., 0., 0., 0.,
          0., 0., 0., 0., 0., 0., 0., 0., 1.99044254e-002, 0., 0., 0.,
          0., 0., 0., 0., 0., 0., 0., 0., 0., 0., 0., 0., 0., 0.,
          1.19961491e-002, 0., 0., 0., 0., 0., 0., 0., 0., 0., 0., 0.,
          0., 0., 0., 0., 0., 0., 0., 0., 0., 0., 0., 0., 0., 0., 0., 0.,
          0., 0., 0., 0., 0., 0., 0., 0., 0., 0., 0., 0., 0., 0., 0., 0.,
          0., 0., 0., 0., 0., 0., 0., 0., 0., 0., 0., 0., 0., 0., 0., 0.,
          0., 0., 0., 0., 0., 0., 0., 0., 0., 0., 0., 0., 0., 0., 0., 0.,
          0., 0., 0., 0., 0., 0., 0., 0., 0., 0., 0., 0., 0., 0., 0., 0.,
          0., 0., 0., 0., 0., 0., 0., 0., 0., 0., 0., 0., 0., 0., 0., 0.,
          0., 0., 0., 0., 0., 0., 0., 0., 0., 0., 0., 0., 0., 0., 0., 0.,
          0., 0., 0., 0., 0., 0., 0., 0., 0., 0., 0., 0., 0., 0., 0., 0.,
          0., 0., 0., 0., 0., 0., 0., 0., 0., 0., 0., 0., 0., 0., 0., 0.,
          0., 0., 0., 0., 0., 0., 0., 0., 0., 0., 0., 0., 0., 0., 0., 0.,
          0., 0., 0., 0., 0., 0., 0., 0., 0., 0., 0., 0., 0., 0., 0., 0.,
          0., 0., 0., 0., 0., 0., 0., 0., 0., 0., 1.67757273e-002, 0.,
          0., 0., 0., 0., 0., 0., 0., 0., 0., 0., 0., 0., 0., 0., 0., 0.,
          1.67757273e-002, 0., 0., 0., 0., 1.83368800e-003,
          3.96955380e-004, 1.21113924e-004, 4.31272259e-004,
          -3.75682168e-004, 2.23491967e-004, 1.73988621e-004,
          8.40721841e-005, 1.67605211e-003, -1.22569632e-002,
          2.16122740e-003, 1.00498898e-002, -2.48865108e-003,
          -7.12297391e-003, 3.44011653e-003, -3.42786167e-004,
          3.56035819e-003, -1.06196776e-002, 1.88814162e-003,
          3.98136443e-004, -7.75072622e-005, 3.93847557e-004,
          -1.19323784e-003, 1.50605163e-004, 3.99814977e-004,
          8.53365855e-005, 1.75855914e-003, -1.01381158e-002,
          5.64731238e-003, 1.54409576e-002, -9.53169819e-003,
          -7.12297391e-003, 8.87237675e-003, 1.18277350e-003,
          1.24931037e-002, -6.12040097e-003, 0., 0., 0., 0., 0., 0., 0.,
          0., 0., 0., 0., 0., 0., 0., 0., 0., 0., 0., 0., 0., 0., 0., 0.,
          0., 0., 0., 0., 0., 0., 0., 0., 0., 0., 0., 0., 0., 0., 0., 0.,
          0., 0., 0., 0., 0., 0., 0., 0., 0., 0., 0., 0., 0., 0., 0., 0.,
          0., 0., 0., 0., 0., 0., 0., 0., 0., 0., 0., 0., 0., 0., 0., 0.,
          0., 0., 0., 0., 0., 0., 0., 0., 0., 0., 0., 0., 0., 0., 0., 0.,
          0., 0., 0., 0., 0., 0., 0., 0., 0., 0., 0., 0., 0., 0., 0., 0.,
          0., 0., 0., 0., 0., 0., 0., 0., 0., 0., 0., 0., 0., 0., 0., 0.,
          0., 0., 0., 0., 0., 0., 0., 0., 0., 0., 0., 0., 0., 0., 0., 0.,
          0., 0., 0., 0., 0., 0., 0., 0., 0., 0., 0., 0., 0., 0., 0., 0.,
          0., 0., 0., 0., 0., 0., 0., 0., 0., 0., 0., 0., 0., 0., 0., 0.,
          0., 0., 0., 0., 0., 0., 0., 0., 0., 0., 0., 0., 0., 0., 0., 0.,
          0., 0., 0., 0., 0., 0., 0., 0., 0., 0., 1.67757273e-002, 0.,
          0., 0., 0., 0., 0., 0., 0., 0., 0., 0., 0., 0., 0., 0., 0., 0.,
          1.67757273e-002, 0., 0., 0., 0., 1.48326857e-003,
          -4.36752569e-004, -2.13602209e-003, 4.60386567e-004,
          1.92356843e-003, 2.76014558e-004, 3.60800186e-004,
          8.15584572e-005, 1.43675914e-003, -1.01547204e-002,
          -9.83180571e-003, -1.47560546e-002, -1.89710676e-003,
          4.22856538e-003, 1.28885722e-002, 2.77514430e-003,
          1.21767633e-002, -5.78303635e-003, 1.81858789e-003,
          1.71101477e-004, -4.22938785e-004, 4.06782056e-004,
          -8.32606573e-004, 4.72483720e-004, 3.89499299e-004,
          6.00869425e-005, 1.77826523e-003, -5.67909516e-003,
          -3.31034372e-003, -1.44104175e-002, -3.39378766e-003,
          4.22856538e-003, 3.80466430e-004, 8.26611649e-003,
          5.71550662e-003, -3.88587150e-003, 0., 0., 0., 0., 0., 0., 0.,
          0., 0., 0., 0., 0., 0., 0., 0., 0., 0., 0., 0., 0., 0., 0., 0.,
          0., 0., 0., 0., 0., 0., 0., 0., 0., 0., 0., 0., 0., 0., 0., 0.,
          0., 0., 0., 0., 0., 0., 0., 0., 0., 0., 0., 0., 0., 0., 0., 0.,
          0., 0., 0., 0., 0., 0., 0., 0., 0., 0., 0., 0., 0., 0., 0., 0.,
          0., 0., 0., 0., 0., 0., 0., 0., 0., 0., 0., 0., 0., 0., 0., 0.,
          0., 0., 0., 0., 0., 0., 0., 0., 0., 0., 0., 0., 0., 0., 0., 0.,
          0., 0., 0., 0., 0., 0., 0., 0., 0., 0., 0., 0., 0., 0., 0., 0.,
          0., 0., 0., 0., 0., 0., 0., 0., 0., 0., 0., 0., 0., 0., 0., 0.,
          0., 0., 0., 0., 0., 0., 0., 0., 0., 0., 0., 0., 0., 0., 0., 0.,
          0., 0., 0., 0., 0., 0., 0., 0., 0., 0., 0., 0., 0., 0., 0., 0.,
          0., 0., 0., 0., 0., 0., 0., 0., 0., 0., 0., 0., 0., 0., 0., 0.,
          0., 0., 0., 0., 0., 0., 0., 8.44086579e-004, 2.52582901e-003,
          0., 1.49405543e-002, 0., 0., 0., 0., 0., 0., 0., 0., 0., 0.,
          0., 0., 0., 0., 3.42368847e-003, 4.92281234e-003, 0.,
          1.49405543e-002, 0., 0., 0., 0., 1.60995603e-003,
          1.35818089e-003, 3.18010757e-003, 4.37246868e-004,
          -4.99440217e-003, 3.87979817e-004, 2.01498042e-004,
          3.43775064e-005, 1.55907043e-003, -8.97695404e-003,
          5.41217858e-003, 1.23022022e-002, 5.64100221e-003,
          -9.88500565e-003, -2.80614430e-003, 5.38639305e-003,
          1.14517903e-003, -7.46287266e-003, 2.07709055e-003,
          1.48836873e-003, 3.04341642e-003, 5.20684407e-004,
          -4.76567354e-003, 4.49723622e-004, 1.46904742e-004,
          1.00996695e-005, 1.93228736e-003, -1.49377808e-002,
          -5.33175888e-003, 4.64790501e-003, -8.64249188e-003,
          -9.88500565e-003, 7.65237631e-003, 6.96563255e-003,
          -9.06327448e-004, -1.28624421e-002, 0., 0., 0., 0., 0., 0., 0.,
          0., 0., 0., 0., 0., 0., 0., 0., 0., 0., 0., 0., 0., 0., 0., 0.,
          0., 0., 0., 0., 0., 0., 0., 0., 0., 0., 0., 0., 0., 0., 0., 0.,
          0., 0., 0., 0., 0., 0., 0., 0., 0., 0., 0., 0., 0., 0., 0., 0.,
          0., 0., 0., 0., 0., 0., 0., 0., 0., 0., 0., 0., 0., 0., 0., 0.,
          0., 0., 0., 0., 0., 0., 0., 0., 0., 0., 0., 0., 0., 0., 0., 0.,
          0., 0., 0., 0., 0., 0., 0., 0., 0., 0., 0., 0., 0., 0., 0., 0.,
          0., 0., 0., 0., 0., 0., 0., 0., 0., 0., 0., 0., 0., 0., 0., 0.,
          0., 0., 0., 0., 0., 0., 0., 0., 0., 0., 0., 0., 0., 0., 0., 0.,
          0., 0., 0., 0., 0., 0., 0., 0., 0., 0., 0., 0., 0., 0., 0., 0.,
          0., 0., 0., 0., 0., 0., 0., 0., 0., 0., 0., 0., 0., 0., 0., 0.,
          0., 0., 0., 0., 0., 0., 0., 0., 0., 0., 0., 0., 0., 0., 0., 0.,
          0., 0., 0., 0., 0., 0., 0., 1.45156635e-003, 4.34364006e-003,
          0., 1.59526020e-002, 0., 0., 0., 0., 0., 0., 0., 0., 0., 0.,
          0., 0., 0., 0., 0., 0., 0., 1.59526020e-002, 0., 0., 0., 0.,
          1.74372864e-003, 6.95957220e-004, 1.11090508e-003,
          9.60027159e-004, -7.85045617e-004, 9.91601846e-004,
          3.02367233e-004, 3.29370232e-005, 1.62065134e-003,
          -2.82284524e-003, -6.21575769e-003, -1.03731407e-002,
          -2.74924878e-002, 1.05009219e-002, 9.67537239e-003,
          5.70627116e-003, 8.50127835e-004, -3.01885349e-003,
          1.65066822e-003, 3.46563436e-004, 4.90642560e-004,
          2.36884831e-003, -1.95780490e-003, 2.23610550e-003,
          4.69115970e-004, 1.92630207e-004, 1.66865415e-003,
          -7.74218049e-003, -4.50073462e-003, -6.69482537e-003,
          -2.05725562e-002, 1.05009219e-002, 1.10137556e-002,
          5.62852155e-003, 8.61033855e-004, -8.09900463e-003, 0., 0., 0.,
          0., 0., 0., 0., 0., 0., 0., 0., 0., 0., 0., 0., 0., 0., 0., 0.,
          0., 0., 0., 0., 0., 0., 0., 0., 0., 0., 0., 0., 0., 0., 0., 0.,
          0., 0., 0., 0., 0., 0., 0., 0., 0., 0., 0., 0., 0., 0., 0., 0.,
          0., 0., 0., 0., 0., 0., 0., 0., 0., 0., 0., 0., 0., 0., 0., 0.,
          0., 0., 0., 0., 0., 0., 0., 0., 0., 0., 0., 0., 0., 0., 0., 0.,
          0., 0., 0., 0., 0., 0., 0., 0., 0., 0., 0., 0., 0., 0., 0., 0.,
          0., 0., 0., 0., 0., 0., 0., 0., 0., 0., 0., 0., 0., 0., 0., 0.,
          0., 0., 0., 0., 0., 0., 0., 0., 0., 0., 0., 0., 0., 0., 0., 0.,
          0., 0., 0., 0., 0., 0., 0., 0., 0., 0., 0., 0., 0., 0., 0., 0.,
          0., 0., 0., 0., 0., 0., 0., 0., 0., 0., 0., 0., 0., 0., 0., 0.,
          0., 0., 0., 0., 0., 0., 0., 0., 0., 0., 0., 0., 0., 0., 0., 0.,
          0., 0., 0., 0., 0., 0., 0., 0., 0., 0., 0., 0., 0., 0.,
          1.67757273e-002, 0., 0., 0., 0., 0., 0., 0., 0., 0., 0., 0.,
          0., 0., 0., 0., 0., 0., 1.67757273e-002, 0., 0., 0., 0.,
          1.40671211e-003, 3.11728771e-004, 4.45615733e-004,
          2.46435404e-003, -1.06210267e-004, 1.46466284e-003,
          4.18362732e-004, 2.36812615e-004, 1.48183608e-003,
          -4.78700502e-003, -6.90280087e-003, -2.19670078e-003,
          -2.28869524e-002, 1.01313246e-002, 9.27278213e-003,
          6.00365223e-003, 1.57734368e-003, -5.62186586e-003,
          1.52637751e-003, 5.26729040e-004, 4.88977064e-004,
          2.60052248e-003, -2.96162115e-003, 1.38560438e-003,
          3.32412688e-004, 1.49431638e-004, 1.48498639e-003,
          -5.52871730e-003, -1.31184710e-002, -5.57588274e-003,
          -2.97540762e-002, 1.01313246e-002, -8.95740371e-003,
          7.90033769e-003, 1.16133736e-003, -3.79745895e-003, 0., 0., 0.,
          0., 0., 0., 0., 0., 0., 0., 0., 0., 0., 0., 0., 0., 0., 0., 0.,
          0., 0., 0., 0., 0., 0., 0., 0., 0., 0., 0., 0., 0., 0., 0., 0.,
          0., 0., 0., 0., 0., 0., 0., 0., 0., 0., 0., 0., 0., 0., 0., 0.,
          0., 0., 0., 0., 0., 0., 0., 0., 0., 0., 0., 0., 0., 0., 0., 0.,
          0., 0., 0., 0., 0., 0., 0., 0., 0., 0., 0., 0., 0., 0., 0., 0.,
          0., 0., 0., 0., 0., 0., 0., 0., 0., 0., 0., 0., 0., 0., 0., 0.,
          0., 0., 0., 0., 0., 0., 0., 0., 0., 0., 0., 0., 0., 0., 0., 0.,
          0., 0., 0., 0., 0., 0., 0., 0., 0., 0., 0., 0., 0., 0., 0., 0.,
          0., 0., 0., 0., 0., 0., 0., 0., 0., 0., 0., 0., 0., 0., 0., 0.,
          0., 0., 0., 0., 0., 0., 0., 0., 0., 0., 0., 0., 0., 0., 0., 0.,
          0., 0., 0., 0., 0., 0., 0., 0., 0., 0., 0., 0., 0., 0., 0., 0.,
          0., 0., 0., 0., 0., 0., 0., 0., 0., 0., 0., 0., 0., 0.,
          1.67757273e-002, 0., 0., 0., 0., 0., 0., 0., 0., 0., 0., 0.,
          0., 0., 0., 0., 0., 0., 1.67757273e-002, 0., 0., 0., 0.,
          1.51142676e-003, 6.25308894e-004, 5.08095254e-004,
          2.48720427e-003, -2.62222369e-003, 1.10552262e-003,
          1.86280333e-004, 7.15839196e-005, 1.35631533e-003,
          -1.58538576e-003, -5.28255524e-003, -6.20120578e-003,
          -2.55911853e-002, 6.96763210e-003, -2.27829423e-002,
          5.02821570e-003, 1.35762291e-003, -7.85868033e-004,
          1.78513490e-003, 6.66383945e-004, 6.33355055e-004,
          2.53163208e-003, -3.79764504e-004, 1.22534600e-003,
          2.71845405e-004, 1.20896548e-004, 1.57059601e-003,
          4.33400623e-004, -2.02979520e-003, 1.94366986e-003,
          -8.03633686e-003, 6.96763210e-003, -9.89746768e-003,
          1.57456100e-003, 4.60854871e-003, -2.11302424e-003, 0., 0., 0.,
          0., 0., 0., 0., 0., 0., 0., 0., 0., 0., 0., 0., 0., 0., 0., 0.,
          0., 0., 0., 0., 0., 0., 0., 0., 0., 0., 0., 0., 0., 0., 0., 0.,
          0., 0., 0., 0., 0., 0., 0., 0., 0., 0., 0., 0., 0., 0., 0., 0.,
          0., 0., 0., 0., 0., 0., 0., 0., 0., 0., 0., 0., 0., 0., 0., 0.,
          0., 0., 0., 0., 0., 0., 0., 0., 0., 0., 0., 0., 0., 0., 0., 0.,
          0., 0., 0., 0., 0., 0., 0., 0., 0., 0., 0., 0., 0., 0., 0., 0.,
          0., 0., 0., 0., 0., 0., 0., 0., 0., 0., 0., 0., 0., 0., 0., 0.,
          0., 0., 0., 0., 0., 0., 0., 0., 0., 0., 0., 0., 0., 0., 0., 0.,
          0., 0., 0., 0., 0., 0., 0., 0., 0., 0., 0., 0., 0., 0., 0., 0.,
          0., 0., 0., 0., 0., 0., 0., 0., 0., 0., 0., 0., 0., 0., 0., 0.,
          0., 0., 0., 0., 0., 0., 0., 0., 0., 0., 0., 0., 0., 0., 0., 0.,
          0., 0., 0., 0., 0., 0., 0., 0., 0., 0., 0., 0., 0., 0.,
          1.99044254e-002, 0., 0., 0., 0., 0., 0., 0., 0., 0., 0., 0.,
          0., 0., 0., 0., 0., 0., 1.19961491e-002, 0., 0., 0., 0.,
          1.26487610e-003, 6.19212282e-004, 6.33638352e-004,
          2.58001592e-003, 3.52650648e-003, 1.09032483e-003,
          4.41411190e-004, 1.30354965e-004, 1.02530106e-003,
          -5.94948512e-003, -1.93970522e-003, -3.73496790e-003,
          1.66693074e-003, -4.66255052e-003, -1.35895275e-002,
          1.83351489e-003, 2.74137920e-003, -5.62228682e-003,
          1.26687658e-003, 5.15061081e-004, 4.83782933e-004,
          3.40976077e-003, 1.11812481e-003, 1.78550498e-003,
          4.87044948e-004, 2.65531125e-004, 1.14141067e-003,
          -1.00136697e-002, -8.56895465e-003, -1.66492220e-002,
          -1.15831792e-002, -4.66255052e-003, -3.65876453e-003,
          7.24513037e-003, 1.98190426e-003, -6.02983637e-003, 0., 0., 0.,
          0., 0., 0., 0., 0., 0., 0., 0., 0., 0., 0., 0., 0., 0., 0., 0.,
          0., 0., 0., 0., 0., 0., 0., 0., 0., 0., 0., 0., 0., 0., 0., 0.,
          0., 0., 0., 0., 0., 0., 0., 0., 0., 0., 0., 0., 0., 0., 0., 0.,
          0., 0., 0., 0., 0., 0., 0., 0., 0., 0., 0., 0., 0., 0., 0., 0.,
          0., 0., 0., 0., 0., 0., 0., 0., 0., 0., 0., 0., 0., 0., 0., 0.,
          0., 0., 0., 0., 0., 0., 0., 0., 0., 0., 0., 0., 0., 0., 0., 0.,
          0., 0., 0., 0., 0., 0., 0., 0., 0., 0., 0., 0., 0., 0., 0., 0.,
          0., 0., 0., 0., 0., 0., 0., 0., 0., 0., 0., 0., 0., 0., 0., 0.,
          0., 0., 0., 0., 0., 0., 0., 0., 0., 0., 0., 0., 0., 0., 0., 0.,
          0., 0., 0., 0., 0., 0., 0., 0., 0., 0., 1.67757273e-002, 0.,
          0., 0., 0., 0., 0., 0., 0., 0., 0., 0., 0., 0., 0., 0., 0., 0.,
          1.67757273e-002, 0., 0., 0., 0., 1.83368800e-003,
          3.96955380e-004, 1.21113924e-004, 4.31272259e-004,
          -3.75682168e-004, 2.23491967e-004, 1.73988621e-004,
          8.40721841e-005, 1.67605211e-003, -1.22569632e-002,
          2.16122740e-003, 1.00498898e-002, -2.48865108e-003,
          -7.12297391e-003, 3.44011653e-003, -3.42786167e-004,
          3.56035819e-003, -1.06196776e-002, 1.88814162e-003,
          3.98136443e-004, -7.75072622e-005, 3.93847557e-004,
          -1.19323784e-003, 1.50605163e-004, 3.99814977e-004,
          8.53365855e-005, 1.75855914e-003, -1.01381158e-002,
          5.64731238e-003, 1.54409576e-002, -9.53169819e-003,
          -7.12297391e-003, 8.87237675e-003, 1.18277350e-003,
          1.24931037e-002, -6.12040097e-003, -7.86471646e-003,
          2.06543319e-003, 9.11831856e-004, -6.98894291e-005,
          -5.12152386e-004, 3.83720128e-003, 4.68936889e-003,
          2.23838002e-003, -7.80391321e-003, -4.16265242e-003,
          -4.32014524e-004, -7.71136396e-003, 9.27175488e-003,
          -2.51441984e-003, 7.92689214e-004, 1.35406954e-002,
          3.84948892e-003, -6.39477186e-003, -4.59322520e-003,
          -2.81970040e-003, 6.72516460e-003, -5.72915748e-003,
          -7.07332394e-004, 4.71530901e-003, 2.16687820e-003,
          3.11519951e-003, -1.68811879e-003, -4.59255622e-004,
          -4.45551891e-003, -1.55870512e-003, 4.90766903e-003,
          2.59509776e-003, -6.89318869e-003, 3.94761236e-003,
          -1.32954111e-002, -5.20792906e-004, 0., 0., 0., 0., 0., 0., 0.,
          0., 0., 0., 0., 0., 0., 0., 0., 0., 0., 0., 0., 0., 0., 0., 0.,
          0., 0., 0., 0., 0., 0., 0., 0., 0., 0., 0., 0., 0., 0., 0., 0.,
          0., 0., 0., 0., 0., 0., 0., 0., 0., 0., 0., 0., 0., 0., 0., 0.,
          0., 0., 0., 0., 0., 0., 0., 0., 0., 0., 0., 0., 0., 0., 0., 0.,
          0., 0., 0., 0., 0., 0., 0., 0., 0., 0., 0., 0., 0., 0., 0., 0.,
          0., 0., 0., 0., 0., 0., 0., 0., 0., 0., 0., 0., 0., 0., 0., 0.,
          0., 0., 0., 0., 0., 0., 0., 0., 0., 0., 0., 0., 0., 0., 0., 0.,
          0., 0., 0., 0., 0., 0., 0., 0., 0., 0., 0., 0., 0., 0., 0., 0.,
          0., 0., 0., 0., 0., 0., 0., 0., 0., 0., 0., 0., 0., 0., 0., 0.,
          0., 0., 0., 0., 0., 0., 1.67757273e-002, 0., 0., 0., 0., 0.,
          0., 0., 0., 0., 0., 0., 0., 0., 0., 0., 0., 0.,
          1.67757273e-002, 0., 0., 0., 0., 1.48326857e-003,
          -4.36752569e-004, -2.13602209e-003, 4.60386567e-004,
          1.92356843e-003, 2.76014558e-004, 3.60800186e-004,
          8.15584572e-005, 1.43675914e-003, -1.01547204e-002,
          -9.83180571e-003, -1.47560546e-002, -1.89710676e-003,
          4.22856538e-003, 1.28885722e-002, 2.77514430e-003,
          1.21767633e-002, -5.78303635e-003, 1.81858789e-003,
          1.71101477e-004, -4.22938785e-004, 4.06782056e-004,
          -8.32606573e-004, 4.72483720e-004, 3.89499299e-004,
          6.00869425e-005, 1.77826523e-003, -5.67909516e-003,
          -3.31034372e-003, -1.44104175e-002, -3.39378766e-003,
          4.22856538e-003, 3.80466430e-004, 8.26611649e-003,
          5.71550662e-003, -3.88587150e-003, -7.58666731e-003,
          -7.21913902e-003, -9.29006550e-004, -4.86210221e-003,
          1.46967324e-003, 7.44825881e-003, 1.51345122e-003,
          4.23193676e-003, -1.37829315e-003, -1.48869713e-003,
          -9.12642106e-003, -4.24728915e-003, 3.36605427e-003,
          8.68026447e-003, 1.92839769e-003, 1.87287794e-003,
          -4.67418274e-003, 3.17578251e-003, -5.58459491e-004,
          -1.30923197e-003, -3.73512204e-003, -9.06206854e-003,
          1.24503626e-003, -1.25892693e-003, 2.09867419e-003,
          5.79087413e-004, -4.35383612e-004, 2.10765749e-003,
          3.46136466e-003, -1.44225005e-002, -3.50615778e-003,
          1.30298373e-003, -2.85751582e-003, -2.61133816e-003,
          -3.01633100e-003, 2.18906533e-003, 0., 0., 0., 0., 0., 0., 0.,
          0., 0., 0., 0., 0., 0., 0., 0., 0., 0., 0., 0., 0., 0., 0., 0.,
          0., 0., 0., 0., 0., 0., 0., 0., 0., 0., 0., 0., 0., 0., 0., 0.,
          0., 0., 0., 0., 0., 0., 0., 0., 0., 0., 0., 0., 0., 0., 0., 0.,
          0., 0., 0., 0., 0., 0., 0., 0., 0., 0., 0., 0., 0., 0., 0., 0.,
          0., 0., 0., 0., 0., 0., 0., 0., 0., 0., 0., 0., 0., 0., 0., 0.,
          0., 0., 0., 0., 0., 0., 0., 0., 0., 0., 0., 0., 0., 0., 0., 0.,
          0., 0., 0., 0., 0., 0., 0., 0., 0., 0., 0., 0., 0., 0., 0., 0.,
          0., 0., 0., 0., 0., 0., 0., 0., 0., 0., 0., 0., 0., 0., 0., 0.,
          0., 0., 0., 0., 0., 0., 0., 0., 0., 0., 0., 0., 0., 0., 0., 0.,
          0., 0., 0., 8.44086579e-004, 2.52582901e-003, 0.,
          1.49405543e-002, 0., 0., 0., 0., 0., 0., 0., 0., 0., 0., 0.,
          0., 0., 0., 3.42368847e-003, 4.92281234e-003, 0.,
          1.49405543e-002, 0., 0., 0., 0., 1.60995603e-003,
          1.35818089e-003, 3.18010757e-003, 4.37246868e-004,
          -4.99440217e-003, 3.87979817e-004, 2.01498042e-004,
          3.43775064e-005, 1.55907043e-003, -8.97695404e-003,
          5.41217858e-003, 1.23022022e-002, 5.64100221e-003,
          -9.88500565e-003, -2.80614430e-003, 5.38639305e-003,
          1.14517903e-003, -7.46287266e-003, 2.07709055e-003,
          1.48836873e-003, 3.04341642e-003, 5.20684407e-004,
          -4.76567354e-003, 4.49723622e-004, 1.46904742e-004,
          1.00996695e-005, 1.93228736e-003, -1.49377808e-002,
          -5.33175888e-003, 4.64790501e-003, -8.64249188e-003,
          -9.88500565e-003, 7.65237631e-003, 6.96563255e-003,
          -9.06327448e-004, -1.28624421e-002, -4.69841383e-004,
          7.87443016e-004, 5.29112469e-004, -3.03767680e-004,
          1.14991982e-003, -3.46712722e-003, 8.76731414e-004,
          -1.23012636e-003, -2.27059331e-003, 2.76013114e-003,
          6.37647929e-003, -1.66258924e-002, 2.60463473e-003,
          6.75835600e-003, -1.74095586e-003, -1.34983789e-002,
          -7.79125374e-003, 2.20285248e-004, -5.01303468e-003,
          -6.48697373e-003, 1.63450255e-003, -8.23203765e-004,
          1.34720863e-003, 5.55433147e-003, 6.78356364e-003,
          -1.32388843e-003, -2.35955417e-003, -1.50468620e-003,
          -4.85783303e-003, -2.90373550e-003, -2.44753971e-003,
          2.83705327e-003, 4.41521406e-004, 1.31094048e-003,
          -9.79293045e-003, 7.13999092e-004, 0., 0., 0., 0., 0., 0., 0.,
          0., 0., 0., 0., 0., 0., 0., 0., 0., 0., 0., 0., 0., 0., 0., 0.,
          0., 0., 0., 0., 0., 0., 0., 0., 0., 0., 0., 0., 0., 0., 0., 0.,
          0., 0., 0., 0., 0., 0., 0., 0., 0., 0., 0., 0., 0., 0., 0., 0.,
          0., 0., 0., 0., 0., 0., 0., 0., 0., 0., 0., 0., 0., 0., 0., 0.,
          0., 0., 0., 0., 0., 0., 0., 0., 0., 0., 0., 0., 0., 0., 0., 0.,
          0., 0., 0., 0., 0., 0., 0., 0., 0., 0., 0., 0., 0., 0., 0., 0.,
          0., 0., 0., 0., 0., 0., 0., 0., 0., 0., 0., 0., 0., 0., 0., 0.,
          0., 0., 0., 0., 0., 0., 0., 0., 0., 0., 0., 0., 0., 0., 0., 0.,
          0., 0., 0., 0., 0., 0., 0., 0., 0., 0., 0., 0., 0., 0., 0., 0.,
          0., 0., 0., 1.45156635e-003, 4.34364006e-003, 0.,
          1.59526020e-002, 0., 0., 0., 0., 0., 0., 0., 0., 0., 0., 0.,
          0., 0., 0., 0., 0., 0., 1.59526020e-002, 0., 0., 0., 0.,
          1.74372864e-003, 6.95957220e-004, 1.11090508e-003,
          9.60027159e-004, -7.85045617e-004, 9.91601846e-004,
          3.02367233e-004, 3.29370232e-005, 1.62065134e-003,
          -2.82284524e-003, -6.21575769e-003, -1.03731407e-002,
          -2.74924878e-002, 1.05009219e-002, 9.67537239e-003,
          5.70627116e-003, 8.50127835e-004, -3.01885349e-003,
          1.65066822e-003, 3.46563436e-004, 4.90642560e-004,
          2.36884831e-003, -1.95780490e-003, 2.23610550e-003,
          4.69115970e-004, 1.92630207e-004, 1.66865415e-003,
          -7.74218049e-003, -4.50073462e-003, -6.69482537e-003,
          -2.05725562e-002, 1.05009219e-002, 1.10137556e-002,
          5.62852155e-003, 8.61033855e-004, -8.09900463e-003,
          2.40318332e-004, -9.80104692e-003, -4.57970006e-003,
          -1.11776041e-002, 2.66998773e-003, 3.50065134e-003,
          4.34683822e-003, -1.80639574e-004, 2.03162758e-003,
          2.99222372e-003, -5.69420401e-003, -8.95329099e-003,
          -2.60869460e-003, 4.36818134e-003, -6.27733592e-004,
          5.48324920e-003, -1.46397073e-002, 9.12019238e-003,
          -2.67959712e-003, -9.64264269e-004, -2.73560965e-003,
          -2.78056064e-003, 3.80638661e-003, 7.85494503e-003,
          1.65044738e-004, -8.71901342e-004, -3.00153275e-003,
          3.30602238e-003, -4.84244199e-003, -1.49596119e-002,
          3.87126650e-003, 3.72844189e-003, 2.30634329e-003,
          -6.36209035e-003, -1.61166005e-002, 7.07186642e-004, 0., 0.,
          0., 0., 0., 0., 0., 0., 0., 0., 0., 0., 0., 0., 0., 0., 0., 0.,
          0., 0., 0., 0., 0., 0., 0., 0., 0., 0., 0., 0., 0., 0., 0., 0.,
          0., 0., 0., 0., 0., 0., 0., 0., 0., 0., 0., 0., 0., 0., 0., 0.,
          0., 0., 0., 0., 0., 0., 0., 0., 0., 0., 0., 0., 0., 0., 0., 0.,
          0., 0., 0., 0., 0., 0., 0., 0., 0., 0., 0., 0., 0., 0., 0., 0.,
          0., 0., 0., 0., 0., 0., 0., 0., 0., 0., 0., 0., 0., 0., 0., 0.,
          0., 0., 0., 0., 0., 0., 0., 0., 0., 0., 0., 0., 0., 0., 0., 0.,
          0., 0., 0., 0., 0., 0., 0., 0., 0., 0., 0., 0., 0., 0., 0., 0.,
          0., 0., 0., 0., 0., 0., 0., 0., 0., 0., 0., 0., 0., 0., 0., 0.,
          0., 0., 0., 0., 0., 0., 0., 0., 0., 0., 0., 1.67757273e-002,
          0., 0., 0., 0., 0., 0., 0., 0., 0., 0., 0., 0., 0., 0., 0., 0.,
          0., 1.67757273e-002, 0., 0., 0., 0., 1.40671211e-003,
          3.11728771e-004, 4.45615733e-004, 2.46435404e-003,
          -1.06210267e-004, 1.46466284e-003, 4.18362732e-004,
          2.36812615e-004, 1.48183608e-003, -4.78700502e-003,
          -6.90280087e-003, -2.19670078e-003, -2.28869524e-002,
          1.01313246e-002, 9.27278213e-003, 6.00365223e-003,
          1.57734368e-003, -5.62186586e-003, 1.52637751e-003,
          5.26729040e-004, 4.88977064e-004, 2.60052248e-003,
          -2.96162115e-003, 1.38560438e-003, 3.32412688e-004,
          1.49431638e-004, 1.48498639e-003, -5.52871730e-003,
          -1.31184710e-002, -5.57588274e-003, -2.97540762e-002,
          1.01313246e-002, -8.95740371e-003, 7.90033769e-003,
          1.16133736e-003, -3.79745895e-003, -4.28528246e-003,
          -1.42713613e-003, -1.35659834e-003, -4.76729730e-003,
          6.81397039e-004, 8.12709052e-003, 2.55412748e-003,
          3.56964039e-004, -3.60120600e-003, 2.87144142e-003,
          -8.33270606e-003, -1.98565219e-002, 7.85349775e-003,
          -4.51882603e-004, 1.04034636e-002, 9.02129244e-003,
          -4.12234152e-003, 4.82243905e-003, -5.06501691e-003,
          -6.94358069e-003, -9.52068809e-003, -1.64650939e-002,
          1.62604978e-004, -3.47339828e-003, 3.63840372e-003,
          2.55533517e-003, -3.15715699e-003, 4.91653197e-003,
          -7.43312109e-003, -2.21215207e-002, -1.18414657e-002,
          7.97599833e-003, 8.70526209e-003, 1.89217161e-002,
          6.37975335e-003, 5.30373678e-003, 0., 0., 0., 0., 0., 0., 0.,
          0., 0., 0., 0., 0., 0., 0., 0., 0., 0., 0., 0., 0., 0., 0., 0.,
          0., 0., 0., 0., 0., 0., 0., 0., 0., 0., 0., 0., 0., 0., 0., 0.,
          0., 0., 0., 0., 0., 0., 0., 0., 0., 0., 0., 0., 0., 0., 0., 0.,
          0., 0., 0., 0., 0., 0., 0., 0., 0., 0., 0., 0., 0., 0., 0., 0.,
          0., 0., 0., 0., 0., 0., 0., 0., 0., 0., 0., 0., 0., 0., 0., 0.,
          0., 0., 0., 0., 0., 0., 0., 0., 0., 0., 0., 0., 0., 0., 0., 0.,
          0., 0., 0., 0., 0., 0., 0., 0., 0., 0., 0., 0., 0., 0., 0., 0.,
          0., 0., 0., 0., 0., 0., 0., 0., 0., 0., 0., 0., 0., 0., 0., 0.,
          0., 0., 0., 0., 0., 0., 0., 0., 0., 0., 0., 0., 0., 0., 0., 0.,
          0., 0., 0., 0., 0., 0., 1.67757273e-002, 0., 0., 0., 0., 0.,
          0., 0., 0., 0., 0., 0., 0., 0., 0., 0., 0., 0.,
          1.67757273e-002, 0., 0., 0., 0., 1.51142676e-003,
          6.25308894e-004, 5.08095254e-004, 2.48720427e-003,
          -2.62222369e-003, 1.10552262e-003, 1.86280333e-004,
          7.15839196e-005, 1.35631533e-003, -1.58538576e-003,
          -5.28255524e-003, -6.20120578e-003, -2.55911853e-002,
          6.96763210e-003, -2.27829423e-002, 5.02821570e-003,
          1.35762291e-003, -7.85868033e-004, 1.78513490e-003,
          6.66383945e-004, 6.33355055e-004, 2.53163208e-003,
          -3.79764504e-004, 1.22534600e-003, 2.71845405e-004,
          1.20896548e-004, 1.57059601e-003, 4.33400623e-004,
          -2.02979520e-003, 1.94366986e-003, -8.03633686e-003,
          6.96763210e-003, -9.89746768e-003, 1.57456100e-003,
          4.60854871e-003, -2.11302424e-003, -1.14324549e-003,
          -1.47120713e-003, -6.13080850e-003, -8.16115458e-003,
          4.31191176e-003, -8.70184600e-003, 9.61065467e-004,
          3.13074025e-003, -1.30773080e-003, 5.56381233e-003,
          -6.87756634e-004, -2.24677306e-002, -1.09404130e-002,
          8.25390872e-003, 1.36620190e-003, 7.97409471e-003,
          6.23574853e-003, 4.75323945e-003, 3.13188508e-003,
          -3.30055668e-003, -3.81886750e-003, -5.05930325e-003,
          3.98154743e-003, -9.24811326e-003, -1.14072405e-003,
          3.95014882e-003, 9.46737942e-004, 7.97461160e-003,
          -5.91043895e-003, -2.53789257e-002, -1.79010921e-003,
          5.03853662e-003, -8.29984620e-003, -5.19373082e-003,
          1.33185613e-003, 4.98218648e-003, 0., 0., 0., 0., 0., 0., 0.,
          0., 0., 0., 0., 0., 0., 0., 0., 0., 0., 0., 0., 0., 0., 0., 0.,
          0., 0., 0., 0., 0., 0., 0., 0., 0., 0., 0., 0., 0., 0., 0., 0.,
          0., 0., 0., 0., 0., 0., 0., 0., 0., 0., 0., 0., 0., 0., 0., 0.,
          0., 0., 0., 0., 0., 0., 0., 0., 0., 0., 0., 0., 0., 0., 0., 0.,
          0., 0., 0., 0., 0., 0., 0., 0., 0., 0., 0., 0., 0., 0., 0., 0.,
          0., 0., 0., 0., 0., 0., 0., 0., 0., 0., 0., 0., 0., 0., 0., 0.,
          0., 0., 0., 0., 0., 0., 0., 0., 0., 0., 0., 0., 0., 0., 0., 0.,
          0., 0., 0., 0., 0., 0., 0., 0., 0., 0., 0., 0., 0., 0., 0., 0.,
          0., 0., 0., 0., 0., 0., 0., 0., 0., 0., 0., 0., 0., 0., 0., 0.,
          0., 0., 0., 0., 0., 0., 1.99044254e-002, 0., 0., 0., 0., 0.,
          0., 0., 0., 0., 0., 0., 0., 0., 0., 0., 0., 0.,
          1.19961491e-002, 0., 0., 0., 0., 1.26487610e-003,
          6.19212282e-004, 6.33638352e-004, 2.58001592e-003,
          3.52650648e-003, 1.09032483e-003, 4.41411190e-004,
          1.30354965e-004, 1.02530106e-003, -5.94948512e-003,
          -1.93970522e-003, -3.73496790e-003, 1.66693074e-003,
          -4.66255052e-003, -1.35895275e-002, 1.83351489e-003,
          2.74137920e-003, -5.62228682e-003, 1.26687658e-003,
          5.15061081e-004, 4.83782933e-004, 3.40976077e-003,
          1.11812481e-003, 1.78550498e-003, 4.87044948e-004,
          2.65531125e-004, 1.14141067e-003, -1.00136697e-002,
          -8.56895465e-003, -1.66492220e-002, -1.15831792e-002,
          -4.66255052e-003, -3.65876453e-003, 7.24513037e-003,
          1.98190426e-003, -6.02983637e-003, 1.87292974e-003,
          -3.14007024e-003, -3.62586812e-003, -1.59873848e-003,
          1.94476394e-003, -9.19564441e-003, -5.87200141e-003,
          -1.92566818e-004, 2.04108283e-003, 1.21753905e-002,
          -1.04982164e-002, -2.75556073e-002, -8.83504469e-003,
          9.09968186e-003, -9.54246335e-003, -8.15587491e-003,
          -2.04220181e-003, 6.06141286e-003, -7.33042834e-003,
          -2.98619084e-003, -2.00421107e-003, -7.41867162e-003,
          2.67395563e-003, -4.34969645e-003, 6.42732892e-004,
          4.96496796e-004, -3.32217221e-003, 1.72775856e-003,
          -5.48787357e-004, -1.37432320e-002, -3.01843393e-003,
          2.95359781e-003, 9.62035917e-003, 7.55622517e-003,
          1.65492343e-003, 1.89518416e-003, 0., 0., 0., 0., 0., 0., 0.,
          0., 0., 0., 0., 0., 0., 0., 0., 0., 0., 0., 0., 0., 0., 0., 0.,
          0., 0., 0., 0., 0., 0., 0., 0., 0., 0., 0., 0., 0., 0., 0., 0.,
          0., 0., 0., 0., 0., 0., 0., 0., 0., 0., 0., 0., 0., 0., 0., 0.,
          0., 0., 0., 0., 0., 0., 0., 0., 0., 0., 0., 0., 0., 0., 0., 0.,
          0., 0., 0., 0., 0., 0., 0., 0., 0., 0., 0., 0., 0., 0., 0., 0.,
          0., 0., 0., 0., 0., 0., 0., 0., 0., 0., 0., 0., 0., 0., 0., 0.,
          0., 0., 0., 0., 0., 0., 0., 0., 0., 0., 0., 0., 0., 0., 0., 0.,
          0., 0., 1.67757273e-002, 0., 0., 0., 0., 0., 0., 0., 0., 0.,
          0., 0., 0., 0., 0., 0., 0., 0., 1.67757273e-002, 0., 0., 0.,
          0., 1.83368800e-003, 3.96955380e-004, 1.21113924e-004,
          4.31272259e-004, -3.75682168e-004, 2.23491967e-004,
          1.73988621e-004, 8.40721841e-005, 1.67605211e-003,
          -1.22569632e-002, 2.16122740e-003, 1.00498898e-002,
          -2.48865108e-003, -7.12297391e-003, 3.44011653e-003,
          -3.42786167e-004, 3.56035819e-003, -1.06196776e-002,
          1.88814162e-003, 3.98136443e-004, -7.75072622e-005,
          3.93847557e-004, -1.19323784e-003, 1.50605163e-004,
          3.99814977e-004, 8.53365855e-005, 1.75855914e-003,
          -1.01381158e-002, 5.64731238e-003, 1.54409576e-002,
          -9.53169819e-003, -7.12297391e-003, 8.87237675e-003,
          1.18277350e-003, 1.24931037e-002, -6.12040097e-003,
          -7.86471646e-003, 2.06543319e-003, 9.11831856e-004,
          -6.98894291e-005, -5.12152386e-004, 3.83720128e-003,
          4.68936889e-003, 2.23838002e-003, -7.80391321e-003,
          -4.16265242e-003, -4.32014524e-004, -7.71136396e-003,
          9.27175488e-003, -2.51441984e-003, 7.92689214e-004,
          1.35406954e-002, 3.84948892e-003, -6.39477186e-003,
          -4.59322520e-003, -2.81970040e-003, 6.72516460e-003,
          -5.72915748e-003, -7.07332394e-004, 4.71530901e-003,
          2.16687820e-003, 3.11519951e-003, -1.68811879e-003,
          -4.59255622e-004, -4.45551891e-003, -1.55870512e-003,
          4.90766903e-003, 2.59509776e-003, -6.89318869e-003,
          3.94761236e-003, -1.32954111e-002, -5.20792906e-004,
          -4.90566669e-003, -3.27461003e-003, -4.12495388e-003,
          2.03240989e-003, -8.11083522e-003, -1.31134628e-004,
          1.22429514e-002, 8.26258096e-004, -1.51670258e-003,
          4.56421403e-003, -2.41851830e-003, 6.30255882e-003,
          -4.87951934e-003, -1.20001601e-003, 4.91894665e-004,
          -5.22281416e-003, 1.44758102e-004, 4.79023717e-003,
          3.15049803e-003, 4.86272620e-003, -5.77432429e-003,
          2.32098461e-003, -1.63814519e-003, -8.08224268e-003,
          2.52077286e-003, -1.03366626e-002, 1.62690657e-003,
          8.52196198e-003, 1.24300281e-002, 1.06024658e-002,
          1.35871395e-003, 7.20864453e-004, -1.33033982e-003,
          -1.18809976e-002, -8.79115891e-003, 7.93279521e-003, 0., 0.,
          0., 0., 0., 0., 0., 0., 0., 0., 0., 0., 0., 0., 0., 0., 0., 0.,
          0., 0., 0., 0., 0., 0., 0., 0., 0., 0., 0., 0., 0., 0., 0., 0.,
          0., 0., 0., 0., 0., 0., 0., 0., 0., 0., 0., 0., 0., 0., 0., 0.,
          0., 0., 0., 0., 0., 0., 0., 0., 0., 0., 0., 0., 0., 0., 0., 0.,
          0., 0., 0., 0., 0., 0., 0., 0., 0., 0., 0., 0., 0., 0., 0., 0.,
          0., 0., 0., 0., 0., 0., 0., 0., 0., 0., 0., 0., 0., 0., 0., 0.,
          0., 0., 0., 0., 0., 0., 0., 0., 0., 0., 0., 0., 0., 0., 0., 0.,
          0., 0., 0., 0., 0., 0., 0., 1.67757273e-002, 0., 0., 0., 0.,
          0., 0., 0., 0., 0., 0., 0., 0., 0., 0., 0., 0., 0.,
          1.67757273e-002, 0., 0., 0., 0., 1.48326857e-003,
          -4.36752569e-004, -2.13602209e-003, 4.60386567e-004,
          1.92356843e-003, 2.76014558e-004, 3.60800186e-004,
          8.15584572e-005, 1.43675914e-003, -1.01547204e-002,
          -9.83180571e-003, -1.47560546e-002, -1.89710676e-003,
          4.22856538e-003, 1.28885722e-002, 2.77514430e-003,
          1.21767633e-002, -5.78303635e-003, 1.81858789e-003,
          1.71101477e-004, -4.22938785e-004, 4.06782056e-004,
          -8.32606573e-004, 4.72483720e-004, 3.89499299e-004,
          6.00869425e-005, 1.77826523e-003, -5.67909516e-003,
          -3.31034372e-003, -1.44104175e-002, -3.39378766e-003,
          4.22856538e-003, 3.80466430e-004, 8.26611649e-003,
          5.71550662e-003, -3.88587150e-003, -7.58666731e-003,
          -7.21913902e-003, -9.29006550e-004, -4.86210221e-003,
          1.46967324e-003, 7.44825881e-003, 1.51345122e-003,
          4.23193676e-003, -1.37829315e-003, -1.48869713e-003,
          -9.12642106e-003, -4.24728915e-003, 3.36605427e-003,
          8.68026447e-003, 1.92839769e-003, 1.87287794e-003,
          -4.67418274e-003, 3.17578251e-003, -5.58459491e-004,
          -1.30923197e-003, -3.73512204e-003, -9.06206854e-003,
          1.24503626e-003, -1.25892693e-003, 2.09867419e-003,
          5.79087413e-004, -4.35383612e-004, 2.10765749e-003,
          3.46136466e-003, -1.44225005e-002, -3.50615778e-003,
          1.30298373e-003, -2.85751582e-003, -2.61133816e-003,
          -3.01633100e-003, 2.18906533e-003, -3.39774555e-003,
          2.86016217e-003, -6.87581301e-003, 1.13953045e-003,
          5.84951462e-003, 3.78401647e-003, 4.28687269e-003,
          -2.39758426e-003, -4.96454909e-003, 4.52357141e-004,
          9.76178516e-003, 7.82527216e-003, 6.90588029e-003,
          4.18656738e-003, 1.49963633e-003, -1.49368504e-002,
          -2.73206970e-003, -2.56820722e-003, -5.95594477e-003,
          4.93332371e-003, -9.21512765e-005, -2.94072507e-003,
          -4.82586585e-003, -2.33037141e-003, -5.30232210e-003,
          -1.96663616e-003, -6.95658522e-003, 3.47626010e-005,
          3.48495273e-003, 3.85641889e-003, -1.72287037e-004,
          1.45000196e-003, 7.18209427e-003, -1.46707497e-003,
          -1.14706543e-003, 5.22684095e-005, 0., 0., 0., 0., 0., 0., 0.,
          0., 0., 0., 0., 0., 0., 0., 0., 0., 0., 0., 0., 0., 0., 0., 0.,
          0., 0., 0., 0., 0., 0., 0., 0., 0., 0., 0., 0., 0., 0., 0., 0.,
          0., 0., 0., 0., 0., 0., 0., 0., 0., 0., 0., 0., 0., 0., 0., 0.,
          0., 0., 0., 0., 0., 0., 0., 0., 0., 0., 0., 0., 0., 0., 0., 0.,
          0., 0., 0., 0., 0., 0., 0., 0., 0., 0., 0., 0., 0., 0., 0., 0.,
          0., 0., 0., 0., 0., 0., 0., 0., 0., 0., 0., 0., 0., 0., 0., 0.,
          0., 0., 0., 0., 0., 0., 0., 0., 0., 0., 0., 0., 0., 0., 0.,
          8.44086579e-004, 2.52582901e-003, 0., 1.49405543e-002, 0., 0.,
          0., 0., 0., 0., 0., 0., 0., 0., 0., 0., 0., 0.,
          3.42368847e-003, 4.92281234e-003, 0., 1.49405543e-002, 0., 0.,
          0., 0., 1.60995603e-003, 1.35818089e-003, 3.18010757e-003,
          4.37246868e-004, -4.99440217e-003, 3.87979817e-004,
          2.01498042e-004, 3.43775064e-005, 1.55907043e-003,
          -8.97695404e-003, 5.41217858e-003, 1.23022022e-002,
          5.64100221e-003, -9.88500565e-003, -2.80614430e-003,
          5.38639305e-003, 1.14517903e-003, -7.46287266e-003,
          2.07709055e-003, 1.48836873e-003, 3.04341642e-003,
          5.20684407e-004, -4.76567354e-003, 4.49723622e-004,
          1.46904742e-004, 1.00996695e-005, 1.93228736e-003,
          -1.49377808e-002, -5.33175888e-003, 4.64790501e-003,
          -8.64249188e-003, -9.88500565e-003, 7.65237631e-003,
          6.96563255e-003, -9.06327448e-004, -1.28624421e-002,
          -4.69841383e-004, 7.87443016e-004, 5.29112469e-004,
          -3.03767680e-004, 1.14991982e-003, -3.46712722e-003,
          8.76731414e-004, -1.23012636e-003, -2.27059331e-003,
          2.76013114e-003, 6.37647929e-003, -1.66258924e-002,
          2.60463473e-003, 6.75835600e-003, -1.74095586e-003,
          -1.34983789e-002, -7.79125374e-003, 2.20285248e-004,
          -5.01303468e-003, -6.48697373e-003, 1.63450255e-003,
          -8.23203765e-004, 1.34720863e-003, 5.55433147e-003,
          6.78356364e-003, -1.32388843e-003, -2.35955417e-003,
          -1.50468620e-003, -4.85783303e-003, -2.90373550e-003,
          -2.44753971e-003, 2.83705327e-003, 4.41521406e-004,
          1.31094048e-003, -9.79293045e-003, 7.13999092e-004,
          -5.11705270e-003, 1.08612387e-003, -4.95993858e-003,
          5.61690610e-003, -1.67891340e-004, -3.83336633e-003,
          -8.72249063e-003, -2.36754748e-003, -5.61350305e-003,
          -8.69220879e-004, 1.90039317e-003, -2.83791497e-003,
          -3.53033259e-003, 5.10345399e-003, -2.04273732e-003,
          6.48227287e-003, -5.97166643e-003, -1.47917448e-003,
          -1.35318341e-003, -1.59145193e-003, -1.54742133e-003,
          1.20832911e-003, -1.05382351e-003, 5.84820751e-003,
          6.32063579e-003, -2.84304377e-003, 1.96839683e-003,
          9.92642948e-004, 6.09309645e-003, -5.63297886e-003,
          3.24622757e-004, 8.33265390e-003, -2.17703450e-003,
          2.72695650e-003, -4.37034154e-003, 3.04173474e-004, 0., 0., 0.,
          0., 0., 0., 0., 0., 0., 0., 0., 0., 0., 0., 0., 0., 0., 0., 0.,
          0., 0., 0., 0., 0., 0., 0., 0., 0., 0., 0., 0., 0., 0., 0., 0.,
          0., 0., 0., 0., 0., 0., 0., 0., 0., 0., 0., 0., 0., 0., 0., 0.,
          0., 0., 0., 0., 0., 0., 0., 0., 0., 0., 0., 0., 0., 0., 0., 0.,
          0., 0., 0., 0., 0., 0., 0., 0., 0., 0., 0., 0., 0., 0., 0., 0.,
          0., 0., 0., 0., 0., 0., 0., 0., 0., 0., 0., 0., 0., 0., 0., 0.,
          0., 0., 0., 0., 0., 0., 0., 0., 0., 0., 0., 0., 0., 0., 0., 0.,
          0., 0., 0., 1.45156635e-003, 4.34364006e-003, 0.,
          1.59526020e-002, 0., 0., 0., 0., 0., 0., 0., 0., 0., 0., 0.,
          0., 0., 0., 0., 0., 0., 1.59526020e-002, 0., 0., 0., 0.,
          1.74372864e-003, 6.95957220e-004, 1.11090508e-003,
          9.60027159e-004, -7.85045617e-004, 9.91601846e-004,
          3.02367233e-004, 3.29370232e-005, 1.62065134e-003,
          -2.82284524e-003, -6.21575769e-003, -1.03731407e-002,
          -2.74924878e-002, 1.05009219e-002, 9.67537239e-003,
          5.70627116e-003, 8.50127835e-004, -3.01885349e-003,
          1.65066822e-003, 3.46563436e-004, 4.90642560e-004,
          2.36884831e-003, -1.95780490e-003, 2.23610550e-003,
          4.69115970e-004, 1.92630207e-004, 1.66865415e-003,
          -7.74218049e-003, -4.50073462e-003, -6.69482537e-003,
          -2.05725562e-002, 1.05009219e-002, 1.10137556e-002,
          5.62852155e-003, 8.61033855e-004, -8.09900463e-003,
          2.40318332e-004, -9.80104692e-003, -4.57970006e-003,
          -1.11776041e-002, 2.66998773e-003, 3.50065134e-003,
          4.34683822e-003, -1.80639574e-004, 2.03162758e-003,
          2.99222372e-003, -5.69420401e-003, -8.95329099e-003,
          -2.60869460e-003, 4.36818134e-003, -6.27733592e-004,
          5.48324920e-003, -1.46397073e-002, 9.12019238e-003,
          -2.67959712e-003, -9.64264269e-004, -2.73560965e-003,
          -2.78056064e-003, 3.80638661e-003, 7.85494503e-003,
          1.65044738e-004, -8.71901342e-004, -3.00153275e-003,
          3.30602238e-003, -4.84244199e-003, -1.49596119e-002,
          3.87126650e-003, 3.72844189e-003, 2.30634329e-003,
          -6.36209035e-003, -1.61166005e-002, 7.07186642e-004,
          1.48513098e-003, 6.42459467e-003, -1.63965323e-003,
          -1.90678329e-004, -8.80703423e-003, -1.03518460e-003,
          4.01266944e-003, -6.89665927e-003, 4.47584549e-003,
          -2.78152467e-004, 1.09333964e-002, -4.17006994e-003,
          -7.29869469e-004, 1.64417794e-003, -3.62833706e-003,
          -3.60391545e-003, 2.59803026e-003, 7.26042083e-003,
          2.56082206e-003, 2.54348782e-003, -1.83405858e-002,
          -8.45734467e-005, -1.57027517e-003, -1.96640193e-003,
          -1.62159209e-003, -8.22396483e-003, -7.82878953e-004,
          -1.48928573e-003, 1.80745330e-002, 2.61237891e-003,
          -5.22311591e-003, -2.03050673e-003, 5.44282049e-003,
          -6.34739734e-003, -2.28655851e-003, -1.05600175e-003, 0., 0.,
          0., 0., 0., 0., 0., 0., 0., 0., 0., 0., 0., 0., 0., 0., 0., 0.,
          0., 0., 0., 0., 0., 0., 0., 0., 0., 0., 0., 0., 0., 0., 0., 0.,
          0., 0., 0., 0., 0., 0., 0., 0., 0., 0., 0., 0., 0., 0., 0., 0.,
          0., 0., 0., 0., 0., 0., 0., 0., 0., 0., 0., 0., 0., 0., 0., 0.,
          0., 0., 0., 0., 0., 0., 0., 0., 0., 0., 0., 0., 0., 0., 0., 0.,
          0., 0., 0., 0., 0., 0., 0., 0., 0., 0., 0., 0., 0., 0., 0., 0.,
          0., 0., 0., 0., 0., 0., 0., 0., 0., 0., 0., 0., 0., 0., 0., 0.,
          0., 0., 0., 0., 0., 0., 0., 1.67757273e-002, 0., 0., 0., 0.,
          0., 0., 0., 0., 0., 0., 0., 0., 0., 0., 0., 0., 0.,
          1.67757273e-002, 0., 0., 0., 0., 1.40671211e-003,
          3.11728771e-004, 4.45615733e-004, 2.46435404e-003,
          -1.06210267e-004, 1.46466284e-003, 4.18362732e-004,
          2.36812615e-004, 1.48183608e-003, -4.78700502e-003,
          -6.90280087e-003, -2.19670078e-003, -2.28869524e-002,
          1.01313246e-002, 9.27278213e-003, 6.00365223e-003,
          1.57734368e-003, -5.62186586e-003, 1.52637751e-003,
          5.26729040e-004, 4.88977064e-004, 2.60052248e-003,
          -2.96162115e-003, 1.38560438e-003, 3.32412688e-004,
          1.49431638e-004, 1.48498639e-003, -5.52871730e-003,
          -1.31184710e-002, -5.57588274e-003, -2.97540762e-002,
          1.01313246e-002, -8.95740371e-003, 7.90033769e-003,
          1.16133736e-003, -3.79745895e-003, -4.28528246e-003,
          -1.42713613e-003, -1.35659834e-003, -4.76729730e-003,
          6.81397039e-004, 8.12709052e-003, 2.55412748e-003,
          3.56964039e-004, -3.60120600e-003, 2.87144142e-003,
          -8.33270606e-003, -1.98565219e-002, 7.85349775e-003,
          -4.51882603e-004, 1.04034636e-002, 9.02129244e-003,
          -4.12234152e-003, 4.82243905e-003, -5.06501691e-003,
          -6.94358069e-003, -9.52068809e-003, -1.64650939e-002,
          1.62604978e-004, -3.47339828e-003, 3.63840372e-003,
          2.55533517e-003, -3.15715699e-003, 4.91653197e-003,
          -7.43312109e-003, -2.21215207e-002, -1.18414657e-002,
          7.97599833e-003, 8.70526209e-003, 1.89217161e-002,
          6.37975335e-003, 5.30373678e-003, 2.89970124e-003,
          -5.05435234e-003, -1.89958028e-002, -2.91656121e-003,
          -5.54741221e-003, 8.04097299e-003, 1.29756918e-002,
          -3.58015503e-004, 3.60227743e-004, -8.60034546e-004,
          7.22422078e-003, 8.73448048e-003, -4.04974772e-003,
          -4.20423876e-003, 5.36925253e-003, -2.19274848e-003,
          -1.29665586e-003, -5.44796186e-003, -4.57703223e-004,
          -6.67031563e-004, -2.20471807e-002, -9.77684837e-003,
          -2.45885435e-003, 1.39021194e-002, 1.61581803e-002,
          5.60128037e-003, -1.36348279e-003, -1.97025901e-003,
          -1.52535981e-003, 3.92628694e-003, 7.82507285e-003,
          5.47574321e-003, -3.54008493e-003, -4.24998114e-003,
          4.18312335e-003, -3.01044551e-003, 0., 0., 0., 0., 0., 0., 0.,
          0., 0., 0., 0., 0., 0., 0., 0., 0., 0., 0., 0., 0., 0., 0., 0.,
          0., 0., 0., 0., 0., 0., 0., 0., 0., 0., 0., 0., 0., 0., 0., 0.,
          0., 0., 0., 0., 0., 0., 0., 0., 0., 0., 0., 0., 0., 0., 0., 0.,
          0., 0., 0., 0., 0., 0., 0., 0., 0., 0., 0., 0., 0., 0., 0., 0.,
          0., 0., 0., 0., 0., 0., 0., 0., 0., 0., 0., 0., 0., 0., 0., 0.,
          0., 0., 0., 0., 0., 0., 0., 0., 0., 0., 0., 0., 0., 0., 0., 0.,
          0., 0., 0., 0., 0., 0., 0., 0., 0., 0., 0., 0., 0., 0., 0., 0.,
          0., 0., 1.67757273e-002, 0., 0., 0., 0., 0., 0., 0., 0., 0.,
          0., 0., 0., 0., 0., 0., 0., 0., 1.67757273e-002, 0., 0., 0.,
          0., 1.51142676e-003, 6.25308894e-004, 5.08095254e-004,
          2.48720427e-003, -2.62222369e-003, 1.10552262e-003,
          1.86280333e-004, 7.15839196e-005, 1.35631533e-003,
          -1.58538576e-003, -5.28255524e-003, -6.20120578e-003,
          -2.55911853e-002, 6.96763210e-003, -2.27829423e-002,
          5.02821570e-003, 1.35762291e-003, -7.85868033e-004,
          1.78513490e-003, 6.66383945e-004, 6.33355055e-004,
          2.53163208e-003, -3.79764504e-004, 1.22534600e-003,
          2.71845405e-004, 1.20896548e-004, 1.57059601e-003,
          4.33400623e-004, -2.02979520e-003, 1.94366986e-003,
          -8.03633686e-003, 6.96763210e-003, -9.89746768e-003,
          1.57456100e-003, 4.60854871e-003, -2.11302424e-003,
          -1.14324549e-003, -1.47120713e-003, -6.13080850e-003,
          -8.16115458e-003, 4.31191176e-003, -8.70184600e-003,
          9.61065467e-004, 3.13074025e-003, -1.30773080e-003,
          5.56381233e-003, -6.87756634e-004, -2.24677306e-002,
          -1.09404130e-002, 8.25390872e-003, 1.36620190e-003,
          7.97409471e-003, 6.23574853e-003, 4.75323945e-003,
          3.13188508e-003, -3.30055668e-003, -3.81886750e-003,
          -5.05930325e-003, 3.98154743e-003, -9.24811326e-003,
          -1.14072405e-003, 3.95014882e-003, 9.46737942e-004,
          7.97461160e-003, -5.91043895e-003, -2.53789257e-002,
          -1.79010921e-003, 5.03853662e-003, -8.29984620e-003,
          -5.19373082e-003, 1.33185613e-003, 4.98218648e-003,
          4.12216963e-004, 4.33096662e-004, -1.98273826e-002,
          -1.95097141e-002, 3.11405491e-003, 1.41250435e-002,
          4.36610170e-003, 6.02010777e-003, 1.23802852e-003,
          -1.46092928e-003, -2.09925161e-003, 5.32831671e-003,
          1.18550775e-003, 7.44800456e-003, 1.24892904e-004,
          -4.57591563e-003, 4.55720630e-003, -8.72186851e-004,
          7.95068406e-003, -7.77407223e-003, -2.38761604e-002,
          -1.57075860e-002, 1.90438342e-003, 5.23365149e-003,
          1.33025169e-003, 2.23670248e-003, 4.30452172e-003,
          -5.28293778e-004, -6.53449632e-003, -1.87199330e-004,
          -2.00417079e-003, 4.70396876e-003, 1.27322860e-002,
          3.93643370e-003, -6.06463582e-004, 5.51767880e-003, 0., 0., 0.,
          0., 0., 0., 0., 0., 0., 0., 0., 0., 0., 0., 0., 0., 0., 0., 0.,
          0., 0., 0., 0., 0., 0., 0., 0., 0., 0., 0., 0., 0., 0., 0., 0.,
          0., 0., 0., 0., 0., 0., 0., 0., 0., 0., 0., 0., 0., 0., 0., 0.,
          0., 0., 0., 0., 0., 0., 0., 0., 0., 0., 0., 0., 0., 0., 0., 0.,
          0., 0., 0., 0., 0., 0., 0., 0., 0., 0., 0., 0., 0., 0., 0., 0.,
          0., 0., 0., 0., 0., 0., 0., 0., 0., 0., 0., 0., 0., 0., 0., 0.,
          0., 0., 0., 0., 0., 0., 0., 0., 0., 0., 0., 0., 0., 0., 0., 0.,
          0., 0., 0., 0., 0., 0., 1.99044254e-002, 0., 0., 0., 0., 0.,
          0., 0., 0., 0., 0., 0., 0., 0., 0., 0., 0., 0.,
          1.19961491e-002, 0., 0., 0., 0., 1.26487610e-003,
          6.19212282e-004, 6.33638352e-004, 2.58001592e-003,
          3.52650648e-003, 1.09032483e-003, 4.41411190e-004,
          1.30354965e-004, 1.02530106e-003, -5.94948512e-003,
          -1.93970522e-003, -3.73496790e-003, 1.66693074e-003,
          -4.66255052e-003, -1.35895275e-002, 1.83351489e-003,
          2.74137920e-003, -5.62228682e-003, 1.26687658e-003,
          5.15061081e-004, 4.83782933e-004, 3.40976077e-003,
          1.11812481e-003, 1.78550498e-003, 4.87044948e-004,
          2.65531125e-004, 1.14141067e-003, -1.00136697e-002,
          -8.56895465e-003, -1.66492220e-002, -1.15831792e-002,
          -4.66255052e-003, -3.65876453e-003, 7.24513037e-003,
          1.98190426e-003, -6.02983637e-003, 1.87292974e-003,
          -3.14007024e-003, -3.62586812e-003, -1.59873848e-003,
          1.94476394e-003, -9.19564441e-003, -5.87200141e-003,
          -1.92566818e-004, 2.04108283e-003, 1.21753905e-002,
          -1.04982164e-002, -2.75556073e-002, -8.83504469e-003,
          9.09968186e-003, -9.54246335e-003, -8.15587491e-003,
          -2.04220181e-003, 6.06141286e-003, -7.33042834e-003,
          -2.98619084e-003, -2.00421107e-003, -7.41867162e-003,
          2.67395563e-003, -4.34969645e-003, 6.42732892e-004,
          4.96496796e-004, -3.32217221e-003, 1.72775856e-003,
          -5.48787357e-004, -1.37432320e-002, -3.01843393e-003,
          2.95359781e-003, 9.62035917e-003, 7.55622517e-003,
          1.65492343e-003, 1.89518416e-003, 6.08968362e-003,
          -1.30159082e-002, -2.52226498e-002, -1.13558928e-002,
          3.14195873e-003, 6.46264013e-003, 2.35746941e-003,
          -9.41248320e-004, 4.65464313e-003, -8.90430249e-003,
          -1.13293594e-002, -5.51886111e-003, -4.82276175e-003,
          3.70361726e-003, 9.52702481e-003, 1.07041951e-002,
          2.61783786e-003, 2.84801936e-003, 2.76066479e-004,
          -4.78998618e-003, -1.44142900e-002, -6.11283444e-003,
          1.86800770e-003, 1.33843115e-002, 1.13496650e-002,
          -1.35625096e-003, 1.36869392e-004, -3.68332514e-003,
          -9.44150519e-003, -1.37361442e-003, 7.00872275e-004,
          -4.57022863e-004, 5.58667257e-003, 1.06146373e-002,
          -9.79000423e-003, 5.21633308e-003, 0., 0., 0., 0., 0., 0., 0.,
          0., 0., 0., 0., 0., 0., 0., 0., 0., 0., 0., 0., 0., 0., 0., 0.,
          0., 0., 0., 0., 0., 0., 0., 0., 0., 0., 0., 0., 0., 0., 0., 0.,
          0., 0., 0., 0., 0., 0., 0., 0., 0., 0., 0., 0., 0., 0., 0., 0.,
          0., 0., 0., 0., 0., 0., 0., 0., 0., 0., 0., 0., 0., 0., 0., 0.,
          0., 0., 0., 0., 0., 0., 0., 0., 0., 0., 0., 0., 0., 0.,
          1.67757273e-002, 0., 0., 0., 0., 0., 0., 0., 0., 0., 0., 0.,
          0., 0., 0., 0., 0., 0., 1.67757273e-002, 0., 0., 0., 0.,
          1.83368800e-003, 3.96955380e-004, 1.21113924e-004,
          4.31272259e-004, -3.75682168e-004, 2.23491967e-004,
          1.73988621e-004, 8.40721841e-005, 1.67605211e-003,
          -1.22569632e-002, 2.16122740e-003, 1.00498898e-002,
          -2.48865108e-003, -7.12297391e-003, 3.44011653e-003,
          -3.42786167e-004, 3.56035819e-003, -1.06196776e-002,
          1.88814162e-003, 3.98136443e-004, -7.75072622e-005,
          3.93847557e-004, -1.19323784e-003, 1.50605163e-004,
          3.99814977e-004, 8.53365855e-005, 1.75855914e-003,
          -1.01381158e-002, 5.64731238e-003, 1.54409576e-002,
          -9.53169819e-003, -7.12297391e-003, 8.87237675e-003,
          1.18277350e-003, 1.24931037e-002, -6.12040097e-003,
          -7.86471646e-003, 2.06543319e-003, 9.11831856e-004,
          -6.98894291e-005, -5.12152386e-004, 3.83720128e-003,
          4.68936889e-003, 2.23838002e-003, -7.80391321e-003,
          -4.16265242e-003, -4.32014524e-004, -7.71136396e-003,
          9.27175488e-003, -2.51441984e-003, 7.92689214e-004,
          1.35406954e-002, 3.84948892e-003, -6.39477186e-003,
          -4.59322520e-003, -2.81970040e-003, 6.72516460e-003,
          -5.72915748e-003, -7.07332394e-004, 4.71530901e-003,
          2.16687820e-003, 3.11519951e-003, -1.68811879e-003,
          -4.59255622e-004, -4.45551891e-003, -1.55870512e-003,
          4.90766903e-003, 2.59509776e-003, -6.89318869e-003,
          3.94761236e-003, -1.32954111e-002, -5.20792906e-004,
          -4.90566669e-003, -3.27461003e-003, -4.12495388e-003,
          2.03240989e-003, -8.11083522e-003, -1.31134628e-004,
          1.22429514e-002, 8.26258096e-004, -1.51670258e-003,
          4.56421403e-003, -2.41851830e-003, 6.30255882e-003,
          -4.87951934e-003, -1.20001601e-003, 4.91894665e-004,
          -5.22281416e-003, 1.44758102e-004, 4.79023717e-003,
          3.15049803e-003, 4.86272620e-003, -5.77432429e-003,
          2.32098461e-003, -1.63814519e-003, -8.08224268e-003,
          2.52077286e-003, -1.03366626e-002, 1.62690657e-003,
          8.52196198e-003, 1.24300281e-002, 1.06024658e-002,
          1.35871395e-003, 7.20864453e-004, -1.33033982e-003,
          -1.18809976e-002, -8.79115891e-003, 7.93279521e-003,
          4.40789666e-003, -4.08395100e-003, 7.56798079e-003,
          -8.85704253e-003, 3.79908178e-003, -5.71004255e-003,
          -1.15552237e-002, 5.22765238e-003, 2.66481144e-003,
          1.58115130e-004, -5.85016143e-003, 1.56180654e-003,
          3.12992325e-003, 1.63888466e-003, -5.35271363e-003,
          -2.05274019e-003, 4.33256943e-003, -7.13109272e-003,
          -3.38889961e-003, 1.12004811e-003, 9.91698541e-003,
          3.41790356e-003, 4.50041285e-003, 2.73577077e-003,
          -7.56116025e-003, -9.55539290e-004, 4.27462114e-003,
          -4.39883629e-003, -9.85031575e-003, -7.21128983e-003,
          -2.16906378e-003, 7.68708857e-003, 1.00845774e-003,
          -6.36467477e-004, 7.48344883e-003, 6.06132718e-003, 0., 0., 0.,
          0., 0., 0., 0., 0., 0., 0., 0., 0., 0., 0., 0., 0., 0., 0., 0.,
          0., 0., 0., 0., 0., 0., 0., 0., 0., 0., 0., 0., 0., 0., 0., 0.,
          0., 0., 0., 0., 0., 0., 0., 0., 0., 0., 0., 0., 0., 0., 0., 0.,
          0., 0., 0., 0., 0., 0., 0., 0., 0., 0., 0., 0., 0., 0., 0., 0.,
          0., 0., 0., 0., 0., 0., 0., 0., 0., 0., 0., 0., 0., 0., 0., 0.,
          0., 0., 1.67757273e-002, 0., 0., 0., 0., 0., 0., 0., 0., 0.,
          0., 0., 0., 0., 0., 0., 0., 0., 1.67757273e-002, 0., 0., 0.,
          0., 1.48326857e-003, -4.36752569e-004, -2.13602209e-003,
          4.60386567e-004, 1.92356843e-003, 2.76014558e-004,
          3.60800186e-004, 8.15584572e-005, 1.43675914e-003,
          -1.01547204e-002, -9.83180571e-003, -1.47560546e-002,
          -1.89710676e-003, 4.22856538e-003, 1.28885722e-002,
          2.77514430e-003, 1.21767633e-002, -5.78303635e-003,
          1.81858789e-003, 1.71101477e-004, -4.22938785e-004,
          4.06782056e-004, -8.32606573e-004, 4.72483720e-004,
          3.89499299e-004, 6.00869425e-005, 1.77826523e-003,
          -5.67909516e-003, -3.31034372e-003, -1.44104175e-002,
          -3.39378766e-003, 4.22856538e-003, 3.80466430e-004,
          8.26611649e-003, 5.71550662e-003, -3.88587150e-003,
          -7.58666731e-003, -7.21913902e-003, -9.29006550e-004,
          -4.86210221e-003, 1.46967324e-003, 7.44825881e-003,
          1.51345122e-003, 4.23193676e-003, -1.37829315e-003,
          -1.48869713e-003, -9.12642106e-003, -4.24728915e-003,
          3.36605427e-003, 8.68026447e-003, 1.92839769e-003,
          1.87287794e-003, -4.67418274e-003, 3.17578251e-003,
          -5.58459491e-004, -1.30923197e-003, -3.73512204e-003,
          -9.06206854e-003, 1.24503626e-003, -1.25892693e-003,
          2.09867419e-003, 5.79087413e-004, -4.35383612e-004,
          2.10765749e-003, 3.46136466e-003, -1.44225005e-002,
          -3.50615778e-003, 1.30298373e-003, -2.85751582e-003,
          -2.61133816e-003, -3.01633100e-003, 2.18906533e-003,
          -3.39774555e-003, 2.86016217e-003, -6.87581301e-003,
          1.13953045e-003, 5.84951462e-003, 3.78401647e-003,
          4.28687269e-003, -2.39758426e-003, -4.96454909e-003,
          4.52357141e-004, 9.76178516e-003, 7.82527216e-003,
          6.90588029e-003, 4.18656738e-003, 1.49963633e-003,
          -1.49368504e-002, -2.73206970e-003, -2.56820722e-003,
          -5.95594477e-003, 4.93332371e-003, -9.21512765e-005,
          -2.94072507e-003, -4.82586585e-003, -2.33037141e-003,
          -5.30232210e-003, -1.96663616e-003, -6.95658522e-003,
          3.47626010e-005, 3.48495273e-003, 3.85641889e-003,
          -1.72287037e-004, 1.45000196e-003, 7.18209427e-003,
          -1.46707497e-003, -1.14706543e-003, 5.22684095e-005,
          -5.57430973e-003, -1.01017044e-003, 4.86848271e-003,
          1.22953644e-002, 7.82769267e-003, 1.10497838e-003,
          -1.42260501e-002, -2.66058324e-003, -1.89701421e-003,
          -2.82646203e-003, -5.32793673e-003, -8.53520632e-003,
          4.20804182e-003, 9.76238400e-003, -3.35505139e-003,
          1.46882911e-003, -3.74440360e-003, 7.32388860e-003,
          3.44266952e-003, -5.92806516e-003, -1.03191026e-002,
          2.84302654e-003, 7.58948445e-004, -4.08482389e-004,
          -1.74191751e-004, -5.61239617e-003, 6.22473424e-003,
          1.82615838e-003, -6.96665095e-003, -4.26341314e-003,
          7.52156554e-003, 8.56783800e-003, -6.49032556e-003,
          -2.29845825e-003, -1.41552379e-002, 9.20288172e-003, 0., 0.,
          0., 0., 0., 0., 0., 0., 0., 0., 0., 0., 0., 0., 0., 0., 0., 0.,
          0., 0., 0., 0., 0., 0., 0., 0., 0., 0., 0., 0., 0., 0., 0., 0.,
          0., 0., 0., 0., 0., 0., 0., 0., 0., 0., 0., 0., 0., 0., 0., 0.,
          0., 0., 0., 0., 0., 0., 0., 0., 0., 0., 0., 0., 0., 0., 0., 0.,
          0., 0., 0., 0., 0., 0., 0., 0., 0., 0., 0., 0., 0., 0., 0., 0.,
          8.44086579e-004, 2.52582901e-003, 0., 1.49405543e-002, 0., 0.,
          0., 0., 0., 0., 0., 0., 0., 0., 0., 0., 0., 0.,
          3.42368847e-003, 4.92281234e-003, 0., 1.49405543e-002, 0., 0.,
          0., 0., 1.60995603e-003, 1.35818089e-003, 3.18010757e-003,
          4.37246868e-004, -4.99440217e-003, 3.87979817e-004,
          2.01498042e-004, 3.43775064e-005, 1.55907043e-003,
          -8.97695404e-003, 5.41217858e-003, 1.23022022e-002,
          5.64100221e-003, -9.88500565e-003, -2.80614430e-003,
          5.38639305e-003, 1.14517903e-003, -7.46287266e-003,
          2.07709055e-003, 1.48836873e-003, 3.04341642e-003,
          5.20684407e-004, -4.76567354e-003, 4.49723622e-004,
          1.46904742e-004, 1.00996695e-005, 1.93228736e-003,
          -1.49377808e-002, -5.33175888e-003, 4.64790501e-003,
          -8.64249188e-003, -9.88500565e-003, 7.65237631e-003,
          6.96563255e-003, -9.06327448e-004, -1.28624421e-002,
          -4.69841383e-004, 7.87443016e-004, 5.29112469e-004,
          -3.03767680e-004, 1.14991982e-003, -3.46712722e-003,
          8.76731414e-004, -1.23012636e-003, -2.27059331e-003,
          2.76013114e-003, 6.37647929e-003, -1.66258924e-002,
          2.60463473e-003, 6.75835600e-003, -1.74095586e-003,
          -1.34983789e-002, -7.79125374e-003, 2.20285248e-004,
          -5.01303468e-003, -6.48697373e-003, 1.63450255e-003,
          -8.23203765e-004, 1.34720863e-003, 5.55433147e-003,
          6.78356364e-003, -1.32388843e-003, -2.35955417e-003,
          -1.50468620e-003, -4.85783303e-003, -2.90373550e-003,
          -2.44753971e-003, 2.83705327e-003, 4.41521406e-004,
          1.31094048e-003, -9.79293045e-003, 7.13999092e-004,
          -5.11705270e-003, 1.08612387e-003, -4.95993858e-003,
          5.61690610e-003, -1.67891340e-004, -3.83336633e-003,
          -8.72249063e-003, -2.36754748e-003, -5.61350305e-003,
          -8.69220879e-004, 1.90039317e-003, -2.83791497e-003,
          -3.53033259e-003, 5.10345399e-003, -2.04273732e-003,
          6.48227287e-003, -5.97166643e-003, -1.47917448e-003,
          -1.35318341e-003, -1.59145193e-003, -1.54742133e-003,
          1.20832911e-003, -1.05382351e-003, 5.84820751e-003,
          6.32063579e-003, -2.84304377e-003, 1.96839683e-003,
          9.92642948e-004, 6.09309645e-003, -5.63297886e-003,
          3.24622757e-004, 8.33265390e-003, -2.17703450e-003,
          2.72695650e-003, -4.37034154e-003, 3.04173474e-004,
          1.04005439e-002, -4.99442453e-004, -1.60019286e-002,
          -6.23225793e-003, 1.71720423e-003, -7.21996068e-004,
          1.03570428e-002, -6.13064598e-003, -2.44465948e-004,
          6.26726961e-003, -7.92867504e-003, -6.23577228e-003,
          -3.06159328e-003, 5.40471519e-004, -4.93382616e-003,
          7.77782919e-003, -8.43594037e-003, 1.04325600e-002,
          5.34634385e-003, 6.97899319e-004, -8.58130585e-003,
          -3.87924467e-003, 3.83827742e-003, -3.55732092e-003,
          5.91125013e-003, -1.71830601e-004, 6.58749416e-003,
          5.02539519e-003, -9.20513086e-003, -9.26390477e-003,
          -5.75376209e-003, -2.75964686e-003, 4.01197048e-003,
          1.30582741e-002, -1.84483558e-003, 9.62137338e-003, 0., 0., 0.,
          0., 0., 0., 0., 0., 0., 0., 0., 0., 0., 0., 0., 0., 0., 0., 0.,
          0., 0., 0., 0., 0., 0., 0., 0., 0., 0., 0., 0., 0., 0., 0., 0.,
          0., 0., 0., 0., 0., 0., 0., 0., 0., 0., 0., 0., 0., 0., 0., 0.,
          0., 0., 0., 0., 0., 0., 0., 0., 0., 0., 0., 0., 0., 0., 0., 0.,
          0., 0., 0., 0., 0., 0., 0., 0., 0., 0., 0., 0., 0., 0., 0.,
          1.45156635e-003, 4.34364006e-003, 0., 1.59526020e-002, 0., 0.,
          0., 0., 0., 0., 0., 0., 0., 0., 0., 0., 0., 0., 0., 0., 0.,
          1.59526020e-002, 0., 0., 0., 0., 1.74372864e-003,
          6.95957220e-004, 1.11090508e-003, 9.60027159e-004,
          -7.85045617e-004, 9.91601846e-004, 3.02367233e-004,
          3.29370232e-005, 1.62065134e-003, -2.82284524e-003,
          -6.21575769e-003, -1.03731407e-002, -2.74924878e-002,
          1.05009219e-002, 9.67537239e-003, 5.70627116e-003,
          8.50127835e-004, -3.01885349e-003, 1.65066822e-003,
          3.46563436e-004, 4.90642560e-004, 2.36884831e-003,
          -1.95780490e-003, 2.23610550e-003, 4.69115970e-004,
          1.92630207e-004, 1.66865415e-003, -7.74218049e-003,
          -4.50073462e-003, -6.69482537e-003, -2.05725562e-002,
          1.05009219e-002, 1.10137556e-002, 5.62852155e-003,
          8.61033855e-004, -8.09900463e-003, 2.40318332e-004,
          -9.80104692e-003, -4.57970006e-003, -1.11776041e-002,
          2.66998773e-003, 3.50065134e-003, 4.34683822e-003,
          -1.80639574e-004, 2.03162758e-003, 2.99222372e-003,
          -5.69420401e-003, -8.95329099e-003, -2.60869460e-003,
          4.36818134e-003, -6.27733592e-004, 5.48324920e-003,
          -1.46397073e-002, 9.12019238e-003, -2.67959712e-003,
          -9.64264269e-004, -2.73560965e-003, -2.78056064e-003,
          3.80638661e-003, 7.85494503e-003, 1.65044738e-004,
          -8.71901342e-004, -3.00153275e-003, 3.30602238e-003,
          -4.84244199e-003, -1.49596119e-002, 3.87126650e-003,
          3.72844189e-003, 2.30634329e-003, -6.36209035e-003,
          -1.61166005e-002, 7.07186642e-004, 1.48513098e-003,
          6.42459467e-003, -1.63965323e-003, -1.90678329e-004,
          -8.80703423e-003, -1.03518460e-003, 4.01266944e-003,
          -6.89665927e-003, 4.47584549e-003, -2.78152467e-004,
          1.09333964e-002, -4.17006994e-003, -7.29869469e-004,
          1.64417794e-003, -3.62833706e-003, -3.60391545e-003,
          2.59803026e-003, 7.26042083e-003, 2.56082206e-003,
          2.54348782e-003, -1.83405858e-002, -8.45734467e-005,
          -1.57027517e-003, -1.96640193e-003, -1.62159209e-003,
          -8.22396483e-003, -7.82878953e-004, -1.48928573e-003,
          1.80745330e-002, 2.61237891e-003, -5.22311591e-003,
          -2.03050673e-003, 5.44282049e-003, -6.34739734e-003,
          -2.28655851e-003, -1.05600175e-003, 1.33838712e-005,
          2.12624297e-003, -3.96378571e-003, 3.51301115e-003,
          5.18599525e-003, -6.52059214e-004, -1.14639988e-003,
          -4.24401165e-004, 7.55517604e-003, -4.25194902e-003,
          -5.99834789e-003, -3.87249445e-003, 7.99078774e-003,
          3.37788515e-004, 7.11843325e-003, 5.34592988e-003,
          -6.08969852e-003, 3.18475300e-003, -2.16637505e-003,
          1.10057928e-002, 5.49059780e-003, -6.04374940e-003,
          -5.95577934e-004, 9.86045226e-004, -1.17142200e-002,
          -6.34346623e-003, -2.53511290e-003, -2.13895296e-003,
          -4.88023460e-003, -5.04424330e-004, -3.51725775e-003,
          3.12782242e-003, -5.87537652e-003, -8.06680880e-004,
          -2.01675764e-004, -3.14404070e-003, 0., 0., 0., 0., 0., 0., 0.,
          0., 0., 0., 0., 0., 0., 0., 0., 0., 0., 0., 0., 0., 0., 0., 0.,
          0., 0., 0., 0., 0., 0., 0., 0., 0., 0., 0., 0., 0., 0., 0., 0.,
          0., 0., 0., 0., 0., 0., 0., 0., 0., 0., 0., 0., 0., 0., 0., 0.,
          0., 0., 0., 0., 0., 0., 0., 0., 0., 0., 0., 0., 0., 0., 0., 0.,
          0., 0., 0., 0., 0., 0., 0., 0., 0., 0., 0., 0., 0., 0.,
          1.67757273e-002, 0., 0., 0., 0., 0., 0., 0., 0., 0., 0., 0.,
          0., 0., 0., 0., 0., 0., 1.67757273e-002, 0., 0., 0., 0.,
          1.40671211e-003, 3.11728771e-004, 4.45615733e-004,
          2.46435404e-003, -1.06210267e-004, 1.46466284e-003,
          4.18362732e-004, 2.36812615e-004, 1.48183608e-003,
          -4.78700502e-003, -6.90280087e-003, -2.19670078e-003,
          -2.28869524e-002, 1.01313246e-002, 9.27278213e-003,
          6.00365223e-003, 1.57734368e-003, -5.62186586e-003,
          1.52637751e-003, 5.26729040e-004, 4.88977064e-004,
          2.60052248e-003, -2.96162115e-003, 1.38560438e-003,
          3.32412688e-004, 1.49431638e-004, 1.48498639e-003,
          -5.52871730e-003, -1.31184710e-002, -5.57588274e-003,
          -2.97540762e-002, 1.01313246e-002, -8.95740371e-003,
          7.90033769e-003, 1.16133736e-003, -3.79745895e-003,
          -4.28528246e-003, -1.42713613e-003, -1.35659834e-003,
          -4.76729730e-003, 6.81397039e-004, 8.12709052e-003,
          2.55412748e-003, 3.56964039e-004, -3.60120600e-003,
          2.87144142e-003, -8.33270606e-003, -1.98565219e-002,
          7.85349775e-003, -4.51882603e-004, 1.04034636e-002,
          9.02129244e-003, -4.12234152e-003, 4.82243905e-003,
          -5.06501691e-003, -6.94358069e-003, -9.52068809e-003,
          -1.64650939e-002, 1.62604978e-004, -3.47339828e-003,
          3.63840372e-003, 2.55533517e-003, -3.15715699e-003,
          4.91653197e-003, -7.43312109e-003, -2.21215207e-002,
          -1.18414657e-002, 7.97599833e-003, 8.70526209e-003,
          1.89217161e-002, 6.37975335e-003, 5.30373678e-003,
          2.89970124e-003, -5.05435234e-003, -1.89958028e-002,
          -2.91656121e-003, -5.54741221e-003, 8.04097299e-003,
          1.29756918e-002, -3.58015503e-004, 3.60227743e-004,
          -8.60034546e-004, 7.22422078e-003, 8.73448048e-003,
          -4.04974772e-003, -4.20423876e-003, 5.36925253e-003,
          -2.19274848e-003, -1.29665586e-003, -5.44796186e-003,
          -4.57703223e-004, -6.67031563e-004, -2.20471807e-002,
          -9.77684837e-003, -2.45885435e-003, 1.39021194e-002,
          1.61581803e-002, 5.60128037e-003, -1.36348279e-003,
          -1.97025901e-003, -1.52535981e-003, 3.92628694e-003,
          7.82507285e-003, 5.47574321e-003, -3.54008493e-003,
          -4.24998114e-003, 4.18312335e-003, -3.01044551e-003,
          -7.51895946e-004, 6.14767428e-004, 5.11126127e-003,
          -1.17835123e-003, -2.93239090e-003, 4.86378651e-003,
          -1.04993731e-002, -3.34334467e-003, -5.12190978e-004,
          -3.21499282e-003, -5.16344886e-003, 2.89015239e-003,
          -3.56015255e-004, 1.99559890e-003, -3.26364720e-003,
          8.05297634e-004, 3.81659740e-003, 4.75174328e-003,
          -5.60882920e-003, -7.17341201e-003, 1.08834554e-003,
          6.27767481e-003, 5.68325107e-004, -5.36561885e-004,
          -7.15044560e-003, -1.59339514e-003, -3.74388206e-003,
          -2.02480587e-003, -6.20935811e-003, 7.72606814e-004,
          6.49480335e-003, 3.65232932e-003, 4.32668021e-003,
          2.90615018e-003, -1.30803746e-004, -4.64082416e-003, 0., 0.,
          0., 0., 0., 0., 0., 0., 0., 0., 0., 0., 0., 0., 0., 0., 0., 0.,
          0., 0., 0., 0., 0., 0., 0., 0., 0., 0., 0., 0., 0., 0., 0., 0.,
          0., 0., 0., 0., 0., 0., 0., 0., 0., 0., 0., 0., 0., 0., 0., 0.,
          0., 0., 0., 0., 0., 0., 0., 0., 0., 0., 0., 0., 0., 0., 0., 0.,
          0., 0., 0., 0., 0., 0., 0., 0., 0., 0., 0., 0., 0., 0., 0., 0.,
          0., 0., 0., 1.67757273e-002, 0., 0., 0., 0., 0., 0., 0., 0.,
          0., 0., 0., 0., 0., 0., 0., 0., 0., 1.67757273e-002, 0., 0.,
          0., 0., 1.51142676e-003, 6.25308894e-004, 5.08095254e-004,
          2.48720427e-003, -2.62222369e-003, 1.10552262e-003,
          1.86280333e-004, 7.15839196e-005, 1.35631533e-003,
          -1.58538576e-003, -5.28255524e-003, -6.20120578e-003,
          -2.55911853e-002, 6.96763210e-003, -2.27829423e-002,
          5.02821570e-003, 1.35762291e-003, -7.85868033e-004,
          1.78513490e-003, 6.66383945e-004, 6.33355055e-004,
          2.53163208e-003, -3.79764504e-004, 1.22534600e-003,
          2.71845405e-004, 1.20896548e-004, 1.57059601e-003,
          4.33400623e-004, -2.02979520e-003, 1.94366986e-003,
          -8.03633686e-003, 6.96763210e-003, -9.89746768e-003,
          1.57456100e-003, 4.60854871e-003, -2.11302424e-003,
          -1.14324549e-003, -1.47120713e-003, -6.13080850e-003,
          -8.16115458e-003, 4.31191176e-003, -8.70184600e-003,
          9.61065467e-004, 3.13074025e-003, -1.30773080e-003,
          5.56381233e-003, -6.87756634e-004, -2.24677306e-002,
          -1.09404130e-002, 8.25390872e-003, 1.36620190e-003,
          7.97409471e-003, 6.23574853e-003, 4.75323945e-003,
          3.13188508e-003, -3.30055668e-003, -3.81886750e-003,
          -5.05930325e-003, 3.98154743e-003, -9.24811326e-003,
          -1.14072405e-003, 3.95014882e-003, 9.46737942e-004,
          7.97461160e-003, -5.91043895e-003, -2.53789257e-002,
          -1.79010921e-003, 5.03853662e-003, -8.29984620e-003,
          -5.19373082e-003, 1.33185613e-003, 4.98218648e-003,
          4.12216963e-004, 4.33096662e-004, -1.98273826e-002,
          -1.95097141e-002, 3.11405491e-003, 1.41250435e-002,
          4.36610170e-003, 6.02010777e-003, 1.23802852e-003,
          -1.46092928e-003, -2.09925161e-003, 5.32831671e-003,
          1.18550775e-003, 7.44800456e-003, 1.24892904e-004,
          -4.57591563e-003, 4.55720630e-003, -8.72186851e-004,
          7.95068406e-003, -7.77407223e-003, -2.38761604e-002,
          -1.57075860e-002, 1.90438342e-003, 5.23365149e-003,
          1.33025169e-003, 2.23670248e-003, 4.30452172e-003,
          -5.28293778e-004, -6.53449632e-003, -1.87199330e-004,
          -2.00417079e-003, 4.70396876e-003, 1.27322860e-002,
          3.93643370e-003, -6.06463582e-004, 5.51767880e-003,
          3.43426364e-003, -2.35734158e-003, 1.37623148e-002,
          1.37037656e-003, 5.49031422e-004, -5.68491407e-003,
          -1.18293194e-002, -8.51930678e-003, -3.70975886e-003,
          8.07080418e-003, 5.59464330e-004, 1.41115068e-002,
          7.31301587e-003, 1.07712834e-003, -2.64429091e-003,
          -1.11383609e-002, -1.21402415e-002, -6.33192249e-003,
          2.93462793e-003, -7.01670721e-003, 4.43792436e-003,
          1.37707368e-002, 1.54694337e-002, -6.75751315e-003,
          -6.06884714e-003, -9.95494705e-003, 3.62001476e-003,
          4.59460123e-003, -8.71864334e-003, 7.33700022e-003,
          1.08210407e-002, 1.12409974e-002, -1.79448593e-002,
          -9.43201408e-003, -1.42898140e-002, 1.62352237e-003, 0., 0.,
          0., 0., 0., 0., 0., 0., 0., 0., 0., 0., 0., 0., 0., 0., 0., 0.,
          0., 0., 0., 0., 0., 0., 0., 0., 0., 0., 0., 0., 0., 0., 0., 0.,
          0., 0., 0., 0., 0., 0., 0., 0., 0., 0., 0., 0., 0., 0., 0., 0.,
          0., 0., 0., 0., 0., 0., 0., 0., 0., 0., 0., 0., 0., 0., 0., 0.,
          0., 0., 0., 0., 0., 0., 0., 0., 0., 0., 0., 0., 0., 0., 0., 0.,
          0., 0., 0., 1.99044254e-002, 0., 0., 0., 0., 0., 0., 0., 0.,
          0., 0., 0., 0., 0., 0., 0., 0., 0., 1.19961491e-002, 0., 0.,
          0., 0., 1.26487610e-003, 6.19212282e-004, 6.33638352e-004,
          2.58001592e-003, 3.52650648e-003, 1.09032483e-003,
          4.41411190e-004, 1.30354965e-004, 1.02530106e-003,
          -5.94948512e-003, -1.93970522e-003, -3.73496790e-003,
          1.66693074e-003, -4.66255052e-003, -1.35895275e-002,
          1.83351489e-003, 2.74137920e-003, -5.62228682e-003,
          1.26687658e-003, 5.15061081e-004, 4.83782933e-004,
          3.40976077e-003, 1.11812481e-003, 1.78550498e-003,
          4.87044948e-004, 2.65531125e-004, 1.14141067e-003,
          -1.00136697e-002, -8.56895465e-003, -1.66492220e-002,
          -1.15831792e-002, -4.66255052e-003, -3.65876453e-003,
          7.24513037e-003, 1.98190426e-003, -6.02983637e-003,
          1.87292974e-003, -3.14007024e-003, -3.62586812e-003,
          -1.59873848e-003, 1.94476394e-003, -9.19564441e-003,
          -5.87200141e-003, -1.92566818e-004, 2.04108283e-003,
          1.21753905e-002, -1.04982164e-002, -2.75556073e-002,
          -8.83504469e-003, 9.09968186e-003, -9.54246335e-003,
          -8.15587491e-003, -2.04220181e-003, 6.06141286e-003,
          -7.33042834e-003, -2.98619084e-003, -2.00421107e-003,
          -7.41867162e-003, 2.67395563e-003, -4.34969645e-003,
          6.42732892e-004, 4.96496796e-004, -3.32217221e-003,
          1.72775856e-003, -5.48787357e-004, -1.37432320e-002,
          -3.01843393e-003, 2.95359781e-003, 9.62035917e-003,
          7.55622517e-003, 1.65492343e-003, 1.89518416e-003,
          6.08968362e-003, -1.30159082e-002, -2.52226498e-002,
          -1.13558928e-002, 3.14195873e-003, 6.46264013e-003,
          2.35746941e-003, -9.41248320e-004, 4.65464313e-003,
          -8.90430249e-003, -1.13293594e-002, -5.51886111e-003,
          -4.82276175e-003, 3.70361726e-003, 9.52702481e-003,
          1.07041951e-002, 2.61783786e-003, 2.84801936e-003,
          2.76066479e-004, -4.78998618e-003, -1.44142900e-002,
          -6.11283444e-003, 1.86800770e-003, 1.33843115e-002,
          1.13496650e-002, -1.35625096e-003, 1.36869392e-004,
          -3.68332514e-003, -9.44150519e-003, -1.37361442e-003,
          7.00872275e-004, -4.57022863e-004, 5.58667257e-003,
          1.06146373e-002, -9.79000423e-003, 5.21633308e-003,
          -5.51228039e-003, -1.12359170e-002, -3.10304924e-004,
          8.15653149e-003, 4.59556608e-003, -2.14383332e-003,
          3.30927246e-003, 2.83517176e-003, 4.38711001e-003,
          -1.83414260e-003, -1.88152457e-003, 5.63116791e-003,
          1.08491816e-003, 2.65480741e-003, -1.88871957e-002,
          -8.39036796e-003, -2.80114659e-003, -2.63637444e-003,
          5.58381667e-004, -1.09102316e-002, 8.01841822e-003,
          -2.63108546e-003, -2.73132976e-003, -1.75356073e-003,
          5.02554281e-003, -2.39611580e-003, 6.38290169e-003,
          2.41539464e-003, 1.28064537e-003, 1.37056429e-002,
          -1.79010001e-003, -2.66209734e-003, -1.10778422e-003,
          -4.06030379e-003, -2.03169009e-004, -1.51705288e-003, 0., 0.,
          0., 0., 0., 0., 0., 0., 0., 0., 0., 0., 0., 0., 0., 0., 0., 0.,
          0., 0., 0., 0., 0., 0., 0., 0., 0., 0., 0., 0., 0., 0., 0., 0.,
          0., 0., 0., 0., 0., 0., 0., 0., 0., 0., 0., 0., 0., 0., 0.,
          1.67757273e-002, 0., 0., 0., 0., 0., 0., 0., 0., 0., 0., 0.,
          0., 0., 0., 0., 0., 0., 1.67757273e-002, 0., 0., 0., 0.,
          1.83368800e-003, 3.96955380e-004, 1.21113924e-004,
          4.31272259e-004, -3.75682168e-004, 2.23491967e-004,
          1.73988621e-004, 8.40721841e-005, 1.67605211e-003,
          -1.22569632e-002, 2.16122740e-003, 1.00498898e-002,
          -2.48865108e-003, -7.12297391e-003, 3.44011653e-003,
          -3.42786167e-004, 3.56035819e-003, -1.06196776e-002,
          1.88814162e-003, 3.98136443e-004, -7.75072622e-005,
          3.93847557e-004, -1.19323784e-003, 1.50605163e-004,
          3.99814977e-004, 8.53365855e-005, 1.75855914e-003,
          -1.01381158e-002, 5.64731238e-003, 1.54409576e-002,
          -9.53169819e-003, -7.12297391e-003, 8.87237675e-003,
          1.18277350e-003, 1.24931037e-002, -6.12040097e-003,
          -7.86471646e-003, 2.06543319e-003, 9.11831856e-004,
          -6.98894291e-005, -5.12152386e-004, 3.83720128e-003,
          4.68936889e-003, 2.23838002e-003, -7.80391321e-003,
          -4.16265242e-003, -4.32014524e-004, -7.71136396e-003,
          9.27175488e-003, -2.51441984e-003, 7.92689214e-004,
          1.35406954e-002, 3.84948892e-003, -6.39477186e-003,
          -4.59322520e-003, -2.81970040e-003, 6.72516460e-003,
          -5.72915748e-003, -7.07332394e-004, 4.71530901e-003,
          2.16687820e-003, 3.11519951e-003, -1.68811879e-003,
          -4.59255622e-004, -4.45551891e-003, -1.55870512e-003,
          4.90766903e-003, 2.59509776e-003, -6.89318869e-003,
          3.94761236e-003, -1.32954111e-002, -5.20792906e-004,
          -4.90566669e-003, -3.27461003e-003, -4.12495388e-003,
          2.03240989e-003, -8.11083522e-003, -1.31134628e-004,
          1.22429514e-002, 8.26258096e-004, -1.51670258e-003,
          4.56421403e-003, -2.41851830e-003, 6.30255882e-003,
          -4.87951934e-003, -1.20001601e-003, 4.91894665e-004,
          -5.22281416e-003, 1.44758102e-004, 4.79023717e-003,
          3.15049803e-003, 4.86272620e-003, -5.77432429e-003,
          2.32098461e-003, -1.63814519e-003, -8.08224268e-003,
          2.52077286e-003, -1.03366626e-002, 1.62690657e-003,
          8.52196198e-003, 1.24300281e-002, 1.06024658e-002,
          1.35871395e-003, 7.20864453e-004, -1.33033982e-003,
          -1.18809976e-002, -8.79115891e-003, 7.93279521e-003,
          4.40789666e-003, -4.08395100e-003, 7.56798079e-003,
          -8.85704253e-003, 3.79908178e-003, -5.71004255e-003,
          -1.15552237e-002, 5.22765238e-003, 2.66481144e-003,
          1.58115130e-004, -5.85016143e-003, 1.56180654e-003,
          3.12992325e-003, 1.63888466e-003, -5.35271363e-003,
          -2.05274019e-003, 4.33256943e-003, -7.13109272e-003,
          -3.38889961e-003, 1.12004811e-003, 9.91698541e-003,
          3.41790356e-003, 4.50041285e-003, 2.73577077e-003,
          -7.56116025e-003, -9.55539290e-004, 4.27462114e-003,
          -4.39883629e-003, -9.85031575e-003, -7.21128983e-003,
          -2.16906378e-003, 7.68708857e-003, 1.00845774e-003,
          -6.36467477e-004, 7.48344883e-003, 6.06132718e-003,
          4.53620043e-004, -5.72766783e-003, 8.63341382e-004,
          9.45228711e-003, -1.78687391e-003, 2.83720857e-003,
          1.57147262e-003, -1.41248820e-004, -4.64446144e-003,
          -5.02025662e-003, -6.34481013e-003, -3.51743097e-003,
          9.59680974e-003, -3.17884900e-004, -6.61876425e-003,
          -3.51151335e-003, 1.45891192e-003, 2.96005164e-003,
          3.61739611e-003, -1.29471710e-002, -9.70909558e-003,
          6.22850843e-003, 5.47479931e-003, 5.21420687e-003,
          -1.19985151e-003, -1.59169384e-003, 7.11522065e-003,
          1.00118876e-003, -7.67109543e-003, -3.86671373e-003,
          6.32662000e-003, 6.75176689e-003, 1.29022449e-003,
          -1.17258644e-002, -8.21566302e-003, 2.38484726e-003, 0., 0.,
          0., 0., 0., 0., 0., 0., 0., 0., 0., 0., 0., 0., 0., 0., 0., 0.,
          0., 0., 0., 0., 0., 0., 0., 0., 0., 0., 0., 0., 0., 0., 0., 0.,
          0., 0., 0., 0., 0., 0., 0., 0., 0., 0., 0., 0., 0., 0., 0.,
          1.67757273e-002, 0., 0., 0., 0., 0., 0., 0., 0., 0., 0., 0.,
          0., 0., 0., 0., 0., 0., 1.67757273e-002, 0., 0., 0., 0.,
          1.48326857e-003, -4.36752569e-004, -2.13602209e-003,
          4.60386567e-004, 1.92356843e-003, 2.76014558e-004,
          3.60800186e-004, 8.15584572e-005, 1.43675914e-003,
          -1.01547204e-002, -9.83180571e-003, -1.47560546e-002,
          -1.89710676e-003, 4.22856538e-003, 1.28885722e-002,
          2.77514430e-003, 1.21767633e-002, -5.78303635e-003,
          1.81858789e-003, 1.71101477e-004, -4.22938785e-004,
          4.06782056e-004, -8.32606573e-004, 4.72483720e-004,
          3.89499299e-004, 6.00869425e-005, 1.77826523e-003,
          -5.67909516e-003, -3.31034372e-003, -1.44104175e-002,
          -3.39378766e-003, 4.22856538e-003, 3.80466430e-004,
          8.26611649e-003, 5.71550662e-003, -3.88587150e-003,
          -7.58666731e-003, -7.21913902e-003, -9.29006550e-004,
          -4.86210221e-003, 1.46967324e-003, 7.44825881e-003,
          1.51345122e-003, 4.23193676e-003, -1.37829315e-003,
          -1.48869713e-003, -9.12642106e-003, -4.24728915e-003,
          3.36605427e-003, 8.68026447e-003, 1.92839769e-003,
          1.87287794e-003, -4.67418274e-003, 3.17578251e-003,
          -5.58459491e-004, -1.30923197e-003, -3.73512204e-003,
          -9.06206854e-003, 1.24503626e-003, -1.25892693e-003,
          2.09867419e-003, 5.79087413e-004, -4.35383612e-004,
          2.10765749e-003, 3.46136466e-003, -1.44225005e-002,
          -3.50615778e-003, 1.30298373e-003, -2.85751582e-003,
          -2.61133816e-003, -3.01633100e-003, 2.18906533e-003,
          -3.39774555e-003, 2.86016217e-003, -6.87581301e-003,
          1.13953045e-003, 5.84951462e-003, 3.78401647e-003,
          4.28687269e-003, -2.39758426e-003, -4.96454909e-003,
          4.52357141e-004, 9.76178516e-003, 7.82527216e-003,
          6.90588029e-003, 4.18656738e-003, 1.49963633e-003,
          -1.49368504e-002, -2.73206970e-003, -2.56820722e-003,
          -5.95594477e-003, 4.93332371e-003, -9.21512765e-005,
          -2.94072507e-003, -4.82586585e-003, -2.33037141e-003,
          -5.30232210e-003, -1.96663616e-003, -6.95658522e-003,
          3.47626010e-005, 3.48495273e-003, 3.85641889e-003,
          -1.72287037e-004, 1.45000196e-003, 7.18209427e-003,
          -1.46707497e-003, -1.14706543e-003, 5.22684095e-005,
          -5.57430973e-003, -1.01017044e-003, 4.86848271e-003,
          1.22953644e-002, 7.82769267e-003, 1.10497838e-003,
          -1.42260501e-002, -2.66058324e-003, -1.89701421e-003,
          -2.82646203e-003, -5.32793673e-003, -8.53520632e-003,
          4.20804182e-003, 9.76238400e-003, -3.35505139e-003,
          1.46882911e-003, -3.74440360e-003, 7.32388860e-003,
          3.44266952e-003, -5.92806516e-003, -1.03191026e-002,
          2.84302654e-003, 7.58948445e-004, -4.08482389e-004,
          -1.74191751e-004, -5.61239617e-003, 6.22473424e-003,
          1.82615838e-003, -6.96665095e-003, -4.26341314e-003,
          7.52156554e-003, 8.56783800e-003, -6.49032556e-003,
          -2.29845825e-003, -1.41552379e-002, 9.20288172e-003,
          -2.17499700e-003, -7.11031538e-003, -5.89512428e-003,
          9.18059796e-003, 4.49697394e-003, -1.50069303e-003,
          1.68599992e-003, -8.37431662e-003, 4.48758295e-003,
          -2.66135379e-004, -7.96740968e-003, -2.40388955e-003,
          -3.75139085e-003, -1.64393743e-003, 8.65397137e-003,
          3.07133328e-003, -3.21081816e-003, -4.46135469e-004,
          -4.42687841e-003, -4.97134589e-003, -3.91935138e-003,
          7.57214101e-003, 2.83841160e-003, -3.73302097e-003,
          8.62793124e-004, -5.67697873e-003, -3.96390271e-004,
          -5.61075890e-003, -2.76781409e-003, 3.89059260e-003,
          -4.29720245e-003, 3.52586387e-003, 1.25556653e-002,
          5.82664087e-003, -2.41040322e-003, -4.22191666e-003, 0., 0.,
          0., 0., 0., 0., 0., 0., 0., 0., 0., 0., 0., 0., 0., 0., 0., 0.,
          0., 0., 0., 0., 0., 0., 0., 0., 0., 0., 0., 0., 0., 0., 0., 0.,
          0., 0., 0., 0., 0., 0., 0., 0., 0., 0., 0., 0.,
          8.44086579e-004, 2.52582901e-003, 0., 1.49405543e-002, 0., 0.,
          0., 0., 0., 0., 0., 0., 0., 0., 0., 0., 0., 0.,
          3.42368847e-003, 4.92281234e-003, 0., 1.49405543e-002, 0., 0.,
          0., 0., 1.60995603e-003, 1.35818089e-003, 3.18010757e-003,
          4.37246868e-004, -4.99440217e-003, 3.87979817e-004,
          2.01498042e-004, 3.43775064e-005, 1.55907043e-003,
          -8.97695404e-003, 5.41217858e-003, 1.23022022e-002,
          5.64100221e-003, -9.88500565e-003, -2.80614430e-003,
          5.38639305e-003, 1.14517903e-003, -7.46287266e-003,
          2.07709055e-003, 1.48836873e-003, 3.04341642e-003,
          5.20684407e-004, -4.76567354e-003, 4.49723622e-004,
          1.46904742e-004, 1.00996695e-005, 1.93228736e-003,
          -1.49377808e-002, -5.33175888e-003, 4.64790501e-003,
          -8.64249188e-003, -9.88500565e-003, 7.65237631e-003,
          6.96563255e-003, -9.06327448e-004, -1.28624421e-002,
          -4.69841383e-004, 7.87443016e-004, 5.29112469e-004,
          -3.03767680e-004, 1.14991982e-003, -3.46712722e-003,
          8.76731414e-004, -1.23012636e-003, -2.27059331e-003,
          2.76013114e-003, 6.37647929e-003, -1.66258924e-002,
          2.60463473e-003, 6.75835600e-003, -1.74095586e-003,
          -1.34983789e-002, -7.79125374e-003, 2.20285248e-004,
          -5.01303468e-003, -6.48697373e-003, 1.63450255e-003,
          -8.23203765e-004, 1.34720863e-003, 5.55433147e-003,
          6.78356364e-003, -1.32388843e-003, -2.35955417e-003,
          -1.50468620e-003, -4.85783303e-003, -2.90373550e-003,
          -2.44753971e-003, 2.83705327e-003, 4.41521406e-004,
          1.31094048e-003, -9.79293045e-003, 7.13999092e-004,
          -5.11705270e-003, 1.08612387e-003, -4.95993858e-003,
          5.61690610e-003, -1.67891340e-004, -3.83336633e-003,
          -8.72249063e-003, -2.36754748e-003, -5.61350305e-003,
          -8.69220879e-004, 1.90039317e-003, -2.83791497e-003,
          -3.53033259e-003, 5.10345399e-003, -2.04273732e-003,
          6.48227287e-003, -5.97166643e-003, -1.47917448e-003,
          -1.35318341e-003, -1.59145193e-003, -1.54742133e-003,
          1.20832911e-003, -1.05382351e-003, 5.84820751e-003,
          6.32063579e-003, -2.84304377e-003, 1.96839683e-003,
          9.92642948e-004, 6.09309645e-003, -5.63297886e-003,
          3.24622757e-004, 8.33265390e-003, -2.17703450e-003,
          2.72695650e-003, -4.37034154e-003, 3.04173474e-004,
          1.04005439e-002, -4.99442453e-004, -1.60019286e-002,
          -6.23225793e-003, 1.71720423e-003, -7.21996068e-004,
          1.03570428e-002, -6.13064598e-003, -2.44465948e-004,
          6.26726961e-003, -7.92867504e-003, -6.23577228e-003,
          -3.06159328e-003, 5.40471519e-004, -4.93382616e-003,
          7.77782919e-003, -8.43594037e-003, 1.04325600e-002,
          5.34634385e-003, 6.97899319e-004, -8.58130585e-003,
          -3.87924467e-003, 3.83827742e-003, -3.55732092e-003,
          5.91125013e-003, -1.71830601e-004, 6.58749416e-003,
          5.02539519e-003, -9.20513086e-003, -9.26390477e-003,
          -5.75376209e-003, -2.75964686e-003, 4.01197048e-003,
          1.30582741e-002, -1.84483558e-003, 9.62137338e-003,
          -1.45318615e-003, -5.09714521e-003, -2.01726519e-003,
          -3.79481725e-003, -3.26801650e-003, 3.80047422e-004,
          1.09935356e-002, -1.29188877e-003, 3.33097787e-003,
          -8.39610025e-003, -4.21750965e-003, -1.58994240e-004,
          4.69094142e-003, -6.24157488e-004, 3.23825004e-003,
          1.00462101e-002, -4.38515376e-003, -2.91309576e-003,
          8.09927750e-003, -5.74597018e-003, -7.22609181e-003,
          -6.10635290e-003, -5.54355700e-003, -1.79005694e-003,
          1.20389350e-002, -3.06865270e-003, 1.63472537e-002,
          -3.43188294e-003, -6.65926281e-003, -1.93665528e-005,
          -4.66763787e-003, -2.72910111e-003, 8.49472242e-004,
          5.69540961e-003, -2.11571110e-003, 1.98279787e-003, 0., 0., 0.,
          0., 0., 0., 0., 0., 0., 0., 0., 0., 0., 0., 0., 0., 0., 0., 0.,
          0., 0., 0., 0., 0., 0., 0., 0., 0., 0., 0., 0., 0., 0., 0., 0.,
          0., 0., 0., 0., 0., 0., 0., 0., 0., 0., 0., 1.45156635e-003,
          4.34364006e-003, 0., 1.59526020e-002, 0., 0., 0., 0., 0., 0.,
          0., 0., 0., 0., 0., 0., 0., 0., 0., 0., 0., 1.59526020e-002,
          0., 0., 0., 0., 1.74372864e-003, 6.95957220e-004,
          1.11090508e-003, 9.60027159e-004, -7.85045617e-004,
          9.91601846e-004, 3.02367233e-004, 3.29370232e-005,
          1.62065134e-003, -2.82284524e-003, -6.21575769e-003,
          -1.03731407e-002, -2.74924878e-002, 1.05009219e-002,
          9.67537239e-003, 5.70627116e-003, 8.50127835e-004,
          -3.01885349e-003, 1.65066822e-003, 3.46563436e-004,
          4.90642560e-004, 2.36884831e-003, -1.95780490e-003,
          2.23610550e-003, 4.69115970e-004, 1.92630207e-004,
          1.66865415e-003, -7.74218049e-003, -4.50073462e-003,
          -6.69482537e-003, -2.05725562e-002, 1.05009219e-002,
          1.10137556e-002, 5.62852155e-003, 8.61033855e-004,
          -8.09900463e-003, 2.40318332e-004, -9.80104692e-003,
          -4.57970006e-003, -1.11776041e-002, 2.66998773e-003,
          3.50065134e-003, 4.34683822e-003, -1.80639574e-004,
          2.03162758e-003, 2.99222372e-003, -5.69420401e-003,
          -8.95329099e-003, -2.60869460e-003, 4.36818134e-003,
          -6.27733592e-004, 5.48324920e-003, -1.46397073e-002,
          9.12019238e-003, -2.67959712e-003, -9.64264269e-004,
          -2.73560965e-003, -2.78056064e-003, 3.80638661e-003,
          7.85494503e-003, 1.65044738e-004, -8.71901342e-004,
          -3.00153275e-003, 3.30602238e-003, -4.84244199e-003,
          -1.49596119e-002, 3.87126650e-003, 3.72844189e-003,
          2.30634329e-003, -6.36209035e-003, -1.61166005e-002,
          7.07186642e-004, 1.48513098e-003, 6.42459467e-003,
          -1.63965323e-003, -1.90678329e-004, -8.80703423e-003,
          -1.03518460e-003, 4.01266944e-003, -6.89665927e-003,
          4.47584549e-003, -2.78152467e-004, 1.09333964e-002,
          -4.17006994e-003, -7.29869469e-004, 1.64417794e-003,
          -3.62833706e-003, -3.60391545e-003, 2.59803026e-003,
          7.26042083e-003, 2.56082206e-003, 2.54348782e-003,
          -1.83405858e-002, -8.45734467e-005, -1.57027517e-003,
          -1.96640193e-003, -1.62159209e-003, -8.22396483e-003,
          -7.82878953e-004, -1.48928573e-003, 1.80745330e-002,
          2.61237891e-003, -5.22311591e-003, -2.03050673e-003,
          5.44282049e-003, -6.34739734e-003, -2.28655851e-003,
          -1.05600175e-003, 1.33838712e-005, 2.12624297e-003,
          -3.96378571e-003, 3.51301115e-003, 5.18599525e-003,
          -6.52059214e-004, -1.14639988e-003, -4.24401165e-004,
          7.55517604e-003, -4.25194902e-003, -5.99834789e-003,
          -3.87249445e-003, 7.99078774e-003, 3.37788515e-004,
          7.11843325e-003, 5.34592988e-003, -6.08969852e-003,
          3.18475300e-003, -2.16637505e-003, 1.10057928e-002,
          5.49059780e-003, -6.04374940e-003, -5.95577934e-004,
          9.86045226e-004, -1.17142200e-002, -6.34346623e-003,
          -2.53511290e-003, -2.13895296e-003, -4.88023460e-003,
          -5.04424330e-004, -3.51725775e-003, 3.12782242e-003,
          -5.87537652e-003, -8.06680880e-004, -2.01675764e-004,
          -3.14404070e-003, 8.62647034e-003, -4.43461211e-003,
          -4.46974114e-003, 2.55897478e-003, -2.75629805e-003,
          -3.35155311e-003, 3.70225520e-003, -5.07263793e-003,
          1.34739969e-002, -5.02689159e-004, -3.30857211e-003,
          -5.55057917e-003, -8.82071257e-003, -4.32966299e-005,
          -2.33925157e-003, 5.77556808e-003, -2.38524075e-003,
          2.72359978e-003, -7.51522719e-004, -1.02587948e-002,
          -8.68475530e-004, 7.26751704e-003, -3.87018872e-003,
          -2.60248198e-003, -6.05897862e-004, 4.19514533e-003,
          5.32154879e-003, -7.51330983e-004, -5.52587910e-003,
          -9.63013805e-003, -3.05438181e-003, 1.35403895e-003,
          -2.78619491e-003, -3.18296393e-003, 1.18186064e-002,
